code,feat_0,feat_1,feat_2,feat_3,feat_4,feat_5,feat_6,feat_7,feat_8,feat_9,feat_10,feat_11,feat_12,feat_13,feat_14,feat_15,feat_16,feat_17,feat_18,feat_19,feat_20,feat_21,feat_22,feat_23,feat_24,feat_25,feat_26,feat_27,feat_28,feat_29,feat_30,feat_31,feat_32,feat_33,feat_34,feat_35,feat_36,feat_37,feat_38,feat_39,feat_40,feat_41,feat_42,feat_43,feat_44,feat_45,feat_46,feat_47,feat_48,feat_49,feat_50,feat_51,feat_52,feat_53,feat_54,feat_55,feat_56,feat_57,feat_58,feat_59,feat_60,feat_61,feat_62,feat_63,feat_64,feat_65,feat_66,feat_67,feat_68,feat_69,feat_70,feat_71,feat_72,feat_73,feat_74,feat_75,feat_76,feat_77,feat_78,feat_79,feat_80,feat_81,feat_82,feat_83,feat_84,feat_85,feat_86,feat_87,feat_88,feat_89,feat_90,feat_91,feat_92,feat_93,feat_94,feat_95,feat_96,feat_97,feat_98,feat_99,feat_100,feat_101,feat_102,feat_103,feat_104,feat_105,feat_106,feat_107,feat_108,feat_109,feat_110,feat_111,feat_112,feat_113,feat_114,feat_115,feat_116,feat_117,feat_118,feat_119,feat_120,feat_121,feat_122,feat_123,feat_124,feat_125,feat_126,feat_127
006_mustard_bottle,0.000979552,-0.30720955,0.27623522,0.33565804,-0.5326941,0.16238634,-0.048917167,-0.2520986,0.12989572,0.5443705,0.40358332,0.38577497,-0.035037648,-0.0070857774,0.18534431,0.551335,0.12198776,0.15297042,0.48259515,-0.076088004,-0.2554058,-0.12605007,0.5310828,0.60452294,0.46279335,-0.0042914003,0.26065153,0.36307165,0.36664245,0.7616525,0.8230328,0.3027808,-0.28090748,0.53971964,-0.26215607,0.094214186,-0.30635414,-0.089565024,0.6678307,0.466515,0.83202654,0.09942828,-0.13384144,0.92142946,0.4270319,-0.08382314,0.23717207,-0.11017451,0.31796336,0.14941043,0.5155756,0.30554754,0.35037765,-0.29700395,0.0736783,0.048173495,-0.0057278275,0.11453641,-0.13279252,-0.07134823,0.6233984,-0.05341936,0.1732369,0.015242521,0.36574945,0.39254785,0.2782903,0.57510567,-0.024676766,1.0141118,-0.097210534,-0.105651505,0.79269373,-0.03685994,0.23677464,0.7832425,0.8069687,-0.073298946,-0.071273945,0.13333696,0.22775583,0.1907376,0.10093562,-0.41541737,0.3423779,0.19141877,-0.15611053,-0.020052103,0.7110258,-0.032728918,0.3294862,0.24185166,-0.17832346,0.075374484,0.20991325,-0.2309924,-0.05266914,-0.05972942,0.112080306,-0.4130009,0.19210741,0.32575083,0.28254694,0.39654002,0.21670607,0.38602516,0.18354811,-0.173881,0.26256517,0.025213882,-0.33310843,-0.073577665,0.44467103,0.37720114,0.16895963,-0.10921405,0.551076,-0.25709984,-0.003466282,0.4426297,-0.014437281,0.29134855,0.18851537,-0.0732789,0.46948093,-0.012167862,0.37993598,0.26426235
021_bleach_cleanser,-0.02354157,-0.2925327,0.34782228,0.44405663,-0.45800152,0.4673898,-0.17514032,-0.21997435,-0.070732236,0.33413082,0.22730298,0.4909546,0.017568113,0.02920118,0.14006186,0.46930674,0.15070239,0.14631662,0.35620067,0.046731822,-0.20622198,0.16412921,0.49095005,0.31661448,0.42134377,0.37994814,0.2689174,0.4650955,0.20396489,0.5750485,0.9896085,0.39612374,-0.050076928,0.55758935,-0.13704525,-0.10154908,-0.34009978,0.15563716,0.3835142,0.42614526,0.11839916,0.10851647,-0.05162784,0.7104174,0.42222446,-0.20735484,0.1742059,-0.22474588,0.56828004,0.44327682,0.4819402,0.35227528,0.32708094,-0.18951212,0.07390165,-0.041749563,0.031362865,-0.15614344,-0.037135944,0.07265088,0.17714311,0.34485346,0.093472354,0.2408267,0.22396606,0.4045518,0.18761133,0.60874736,-0.17256309,0.7396193,-0.1653615,-0.16889286,0.5263847,-0.092709385,0.23374127,0.5413038,0.5339048,0.066615,-0.05635915,0.044586428,-0.12031528,0.07081922,0.34910506,-0.12981944,0.31429964,0.17349333,-0.20658052,0.008221575,0.62337226,0.25981998,0.32952332,0.17610323,0.0094645545,0.12758654,-0.09824567,-0.25213107,0.20255366,0.09108596,0.15093987,-0.2682082,0.63342065,0.18997706,0.36040774,0.65614176,0.47185445,0.50662816,-0.11799781,-0.204603,0.47690222,-0.2824989,-0.2687317,0.18150365,0.30266824,0.04928568,0.30475605,-0.13051647,0.5069672,-0.49549448,0.08112117,0.13582754,0.13003176,0.14452061,0.2391508,-0.043714967,0.45112348,0.12724514,0.24814507,0.28002062
035_power_drill,0.26845598,-0.029884689,-0.029872866,1.0145866,-0.3531763,0.7199898,0.51771605,-0.33780375,0.4729136,-0.0656847,0.06522074,0.21819794,0.10616678,0.3332928,0.7483919,0.29541126,1.0996141,-0.100439444,0.26394248,-0.25164515,0.1901737,1.0005251,0.6482509,0.07863666,-0.26278365,0.41399592,-0.21777824,-0.20557961,-0.05317262,0.22984678,-0.4988912,0.04756601,-0.1832397,-0.031135805,0.024333507,-0.34475166,-0.28470826,0.028899103,0.29125205,0.10182251,-0.080218434,0.018082522,0.5839022,0.11015947,0.29178178,0.9817711,0.27259916,-0.2353007,0.5976725,-0.27618372,-0.24524009,0.15991957,1.2739946,0.5042766,0.6321038,0.7739645,0.7915066,1.07206,-0.351176,-0.28659087,-0.11805087,0.97039026,0.06691569,-0.01175807,-0.14516813,0.20006296,-0.27183735,1.2056862,0.6639178,0.24888575,-0.26326913,1.3893803,0.6618224,-0.043544006,0.0103206,-0.20322263,0.37251943,-0.042726163,-0.13668247,0.20621197,-0.080889404,0.17864203,-0.18707487,-0.076005064,-0.6254603,1.0957191,-0.4018203,0.8419616,0.16757128,0.9091309,-0.1497512,-0.07399197,0.5720953,0.21608612,-0.026665546,0.69242865,0.21934201,0.22977822,0.11079934,0.13117486,0.8785903,1.7706974,0.33481187,0.45425034,-0.029776134,0.44326517,0.5635633,-0.082615696,-0.11902402,0.14743587,-0.51825905,0.5717622,0.05907965,0.3586136,0.13314791,0.48349264,-0.05266302,-0.33018124,-0.4892051,0.76053566,0.1687287,-0.027140826,0.38481894,-0.19675635,0.286607,-0.17432207,0.10450579,-0.40420014
037_scissors,0.34122455,-0.46617156,-0.23946832,-0.35641336,-0.6624309,0.12688932,0.40931925,-0.44989228,0.9046948,1.1601735,-0.5422019,1.4312612,0.84655243,-0.35718834,0.77719986,0.03526772,0.29074585,0.27206153,0.24099262,0.07703028,-0.03538133,0.1574832,0.67924964,0.24809465,-0.11716995,-0.18643855,0.026029183,0.011709742,1.033644,0.56134665,0.8516058,-0.4679772,-0.3349923,0.41563278,0.7639552,0.11317696,-0.35640728,0.07235252,0.13129649,0.067108184,0.42642176,-0.108838454,0.29031584,0.82244426,0.9863591,0.03008281,0.22093421,0.9682462,-0.17026937,0.3951762,0.104137324,0.14641938,0.060704876,-0.2604356,0.4519434,0.18099573,0.21402377,0.09359714,0.16968842,-0.08137452,0.5348057,0.22366327,-0.014667622,0.40881371,0.8675056,0.1031269,-0.080794394,0.008402957,0.0010012761,0.18537302,-0.40002093,-0.38953847,0.7228598,1.0589978,-0.17247918,1.0035123,0.8854912,0.82384634,0.013810513,0.030042637,0.14824815,0.16048853,0.04840363,0.21206295,0.14564306,0.04598821,-0.59871423,0.38438004,0.87946564,0.47206506,-0.2802893,-0.25119075,-0.15164039,0.40129614,-0.5043561,-0.16489515,-0.19909354,0.91558784,-0.4356848,-0.29685438,0.4084818,0.38228774,0.29436445,-0.955031,0.17738923,0.9652381,-0.037156425,-0.023178063,-0.26758826,-0.04853235,0.12063341,-0.35753787,1.2470506,0.39227766,0.35018176,1.2015876,-0.14529723,0.48779085,0.37593645,0.2411066,-0.5778574,-0.37327427,0.12080665,-0.13213652,0.11045303,0.73964834,-0.1762673,-0.21821451
binoculars_0,0.4710294,0.34397694,0.37102774,-0.0740889,0.59667146,0.6064926,0.30088,1.0144231,-0.24130732,0.15079331,0.11108488,0.24205661,-0.16002491,0.34045383,0.29680914,0.1429523,-0.00081269816,0.51231945,0.2892665,-0.12705258,0.92197233,0.03939357,0.17315188,-0.108324334,-0.026843127,-0.11576916,0.063448094,1.0275745,0.038690496,-0.1582241,0.09103946,0.12862943,0.31804708,0.10494748,-0.12423537,0.748293,0.4326397,0.370575,-0.03945981,-0.12530887,-0.2740655,0.5860672,0.53882086,-0.15185852,0.17744802,0.3529774,0.1576603,0.052436788,-0.1380139,-0.030378722,0.43121386,0.28588307,0.32286897,-0.20206119,0.07761118,-0.116297334,0.33944017,0.48836276,-0.131038,0.31338468,0.41011998,0.057508033,0.120169245,-0.14576674,0.6922931,-0.08441396,0.09428688,-0.16561249,0.28985414,-0.091298565,0.7173941,-0.016795725,0.036733106,0.88592505,0.6346472,-0.17826524,0.3597932,-0.0082673095,-0.012994511,0.18707041,0.9050929,0.54437065,0.39326608,0.30185038,0.20625761,0.053447895,-0.08208362,0.17166044,0.33912763,-0.14051698,0.36763018,0.26123366,-0.23949869,0.6564391,0.023335226,0.16832271,0.28022704,0.47326806,0.11969862,0.16925134,-0.20629647,0.33475572,0.37750274,-0.09368696,0.06587423,-0.15286386,0.3112414,0.49325472,-0.104989216,0.6361726,0.2893335,0.9167065,0.38770851,-0.24898574,0.09093039,0.1921162,0.058913946,0.81761307,0.22923462,0.064520106,0.4167158,0.65371716,0.5289137,0.68211704,-0.088993795,0.30210212,0.46107438,0.040087607
binoculars_1,-0.10045874,0.73626506,0.28591225,0.89107054,0.34394524,0.4405018,0.86517936,0.5789305,0.36492532,0.021262407,0.22311907,0.54331607,0.20774955,0.5189404,0.26030117,0.238953,0.40514016,0.13858685,0.2328087,-0.03016889,0.11685982,0.31279197,0.33330345,0.5868014,0.86719495,-0.03552401,-0.045303244,0.34427792,0.002995208,-0.07748292,-0.24873026,0.61343324,0.2983092,-0.035264716,0.11680036,0.606305,0.30258328,0.41027793,0.6688067,0.088219486,-0.13740923,0.44668144,0.45972857,0.4334523,-0.14660934,0.3330739,0.4719636,-0.26457763,0.611922,0.026615623,0.1032389,0.38538373,0.24006855,0.09052658,0.27965257,-0.036666855,0.7168892,0.87136143,-0.23953386,0.49828863,0.67834604,0.23118123,0.3150372,-0.43239006,0.108023316,0.5986508,0.49731445,0.32930672,0.406486,0.07810751,0.8676171,-0.06660436,0.35115063,0.45486876,0.92601156,-0.44319472,0.062440325,0.8470718,0.5729447,0.21895885,0.67710143,0.5794224,0.5303811,0.1348536,0.25370216,-0.5133602,-0.048046358,0.10216655,0.14646024,0.4793684,0.45289898,0.5856024,-0.2138172,0.43518993,0.45656472,-0.10306188,0.27565584,-0.012604974,1.0461923,0.5029708,0.085364066,0.07985583,0.22843254,0.27130878,0.57386404,0.47909012,-0.43889925,1.3370355,-0.28179854,0.28118643,0.7149545,0.23200625,0.11347866,0.29070908,0.7616621,0.057593115,0.29475108,-0.12608361,-0.22807086,0.57746834,0.7546351,0.5507951,0.47623217,0.096457854,-0.5902243,0.2862017,0.772368,0.1163325
binoculars_11,-0.15872662,0.5956712,0.35866234,0.14000894,0.5863981,-0.11400609,0.26073256,0.43830228,0.0013103113,0.044049133,0.17086355,0.0430917,-0.11448699,0.10173308,0.08681287,0.77726823,0.3110675,0.24925351,0.54816985,0.13748322,0.4615912,0.10494571,-0.07901358,0.44050625,0.6644512,0.33308107,0.119268686,0.25285393,-0.020689216,0.0052440576,-0.17280531,-0.02542112,0.38892633,0.19685015,-0.04702031,0.5344865,0.34777462,-0.25353348,0.32689106,0.04676357,-0.33770877,0.057341266,0.17249197,-0.08348267,-0.079705864,0.26637363,0.2962555,0.008910733,-0.0855579,0.122148946,0.19073796,0.19101402,-0.40847647,0.015552405,0.024643794,-0.017306188,0.56806636,0.62692076,-0.01603445,0.13103029,0.50123656,-0.015639877,0.10808212,-0.31256342,-0.33024368,0.3449545,0.14216065,0.18822502,0.53908956,0.029762408,0.5800289,0.024747208,0.1605291,1.111053,0.14129439,-0.06788506,-0.10718451,0.11727917,0.43821988,0.20588247,0.637499,0.42416438,0.0063673854,-0.023711886,-0.14136094,0.12665892,-0.16960825,0.15526208,0.04280821,0.37180522,0.07071776,0.2817531,-0.005434081,-0.12157389,0.06346605,0.2960271,-0.027475808,-0.10657135,0.4473961,0.5740699,0.083331086,-0.08958043,0.101787716,0.032283686,0.15794195,0.16424799,0.082914904,0.6463418,0.07618514,0.7011083,0.71903664,0.120479695,-0.041612264,0.23029168,0.37209374,-0.018991899,0.2873693,0.8503018,-0.06632383,0.15647224,0.52904385,0.58147377,0.27028075,0.5554495,-0.27757567,0.09530653,0.34759885,0.2224632
binoculars_12,-0.015031713,0.94821286,0.41162935,0.3666654,0.55616874,0.13520294,0.89097875,0.7885137,-0.06536451,0.09127915,-0.027959537,0.25006524,-0.008187259,0.4521634,0.18147843,0.30594176,0.13176303,0.58125377,-0.06951488,0.04636067,0.41271204,0.41371858,-0.33298624,0.3659906,0.17819408,0.089828506,0.07858592,0.565235,0.04979044,-0.28869003,-0.08225049,0.4679717,0.2563269,-0.03297457,-0.09608888,0.8458544,0.7967132,0.47677755,0.1365582,0.025804766,-0.26794425,0.5744364,0.20997073,0.08405326,-0.17582451,0.2500786,0.20253974,-0.15739988,0.0050725453,0.35942167,0.25364023,0.26160505,0.08329882,0.06498015,0.4094035,-0.111929685,0.9857601,0.6002647,-0.073481165,0.46179554,0.2557568,0.18281229,0.23103166,-0.23641273,0.09740385,0.4069137,0.4719073,-0.0581818,0.6120331,-0.2635898,0.7412375,-0.19693574,0.19401388,0.659304,0.8984854,-0.36303732,-0.07195396,0.50087327,0.4017825,0.21096708,0.83908695,0.4420575,0.399354,0.24837199,0.11845633,-0.3948922,-0.17983614,0.29817307,0.12353224,0.30050525,0.5158827,0.324356,0.12553364,0.096131064,0.17021817,-0.21400738,0.5342713,0.03171059,0.3959695,0.63276553,-0.15181299,0.04001341,-0.060088925,0.16932821,0.4127471,0.39525428,-0.015562989,1.1468141,-0.06580644,0.30018416,0.62340707,0.6410015,0.1462372,-0.00889363,0.8418346,0.06385097,0.08172873,0.26268002,-0.2688208,0.2807425,0.55578697,0.6412426,0.73336136,0.7978218,-0.36110592,0.40449247,0.8512137,0.3120408
binoculars_13,0.14154145,0.80845857,0.56303406,0.012441874,0.5595697,0.21904624,0.5053016,0.59401244,-0.0025477875,0.03215162,0.09468722,0.070491664,0.07794376,0.5242268,0.12816122,0.45541802,-0.092062235,0.42829672,0.15052767,0.06871029,0.48044565,0.16606969,-0.29106656,0.0318883,0.015579324,0.10968514,0.12325442,0.68139184,-0.074862376,-0.12703556,-0.060431443,0.29269615,0.11249511,0.09748283,-0.021017784,0.67771244,0.28138158,0.026722819,0.044849053,0.16861627,-0.13789275,0.19870837,0.4126064,-0.026540123,-0.19124508,0.055954725,0.09647464,-0.17811304,0.041685507,-0.23630506,0.43788052,0.053224828,0.15267219,0.007488366,0.3132106,-0.089369014,0.5770757,0.52327543,-0.029633082,0.2812523,0.21661724,0.14084768,0.20009014,-0.17852531,0.14595395,0.07428281,0.16444616,-0.13436902,0.67540365,-0.36743584,0.57762396,-0.14322951,0.06521768,0.67418706,0.8160781,-0.11622005,-0.0023667328,0.102977484,0.10225347,0.096408814,0.6505109,0.41680843,0.020346973,0.18384306,0.09179548,-0.39908388,-0.07290413,0.118452996,0.068640135,0.066447064,0.14056537,0.0783579,-0.020489968,-0.063424215,-0.08635551,0.06834956,0.111531876,0.07831475,0.48201424,0.31430972,-0.1906233,0.22345084,-0.039727382,-0.0079068,0.22642562,0.020746054,0.08139026,0.7547101,-0.16011119,0.62486815,0.47843236,0.35272324,0.052450415,0.056362435,0.32854068,-0.16522312,0.016294405,0.6968012,-0.16947787,0.4400897,0.79132026,0.71105933,0.47972724,0.7550609,-0.121286504,0.25925478,0.4351171,0.1383896
binoculars_14,-0.09812625,0.4279146,0.36020786,0.31180257,0.45120645,-0.017050002,0.06353938,0.43235403,0.04666192,0.18274571,0.2030718,-0.01232299,-0.14195222,0.20495483,0.05010198,0.6513834,0.42061427,-0.05787863,0.7773069,0.23739585,0.62926304,-0.05833634,-0.00746949,0.3409143,0.8833424,0.19022535,0.07977952,0.27046627,-0.244208,0.08169009,-0.08266714,0.0021531666,0.31392333,0.49252504,0.09063218,0.46388724,-0.064429685,-0.4066115,0.29541326,0.16161025,-0.44487506,-0.16959354,0.300593,-0.19728385,0.14621544,0.35940048,0.5375849,0.047322266,-0.15421554,0.173155,0.25015286,0.26738572,-0.4059823,0.08265619,0.22688445,0.26377484,0.36717048,0.5317817,-0.045353632,0.34478545,0.62284875,-0.032633502,0.12716803,-0.25008014,-0.23147368,0.46764284,0.12949616,0.47663045,0.3020929,0.10966694,0.543055,0.061788596,0.29979607,1.0865159,0.11395177,0.02424619,-0.050732017,-0.13308452,0.21661279,0.13584523,0.6079485,0.3864027,0.2000265,-0.018223837,0.0758559,0.13684693,-0.025533926,-0.039124846,0.11809556,0.46896747,-0.04120861,0.33010498,-0.3250866,0.017300062,0.15643068,0.280818,-0.0066905506,-0.10561989,0.33402997,0.42451033,0.20199992,-0.18575181,0.47225666,0.15624307,0.055698298,0.17091599,0.02336499,0.34293458,0.049894057,0.8899694,0.69167095,0.13966252,-0.13901484,0.31406075,0.13921796,0.21049747,0.26690048,1.1834543,-0.00287975,0.17301202,0.46269596,0.6109063,0.28665888,0.46651068,-0.25399432,-0.027816467,0.22197996,0.5188858
binoculars_15,-0.07269479,0.8533864,0.88619775,0.6233901,0.29699382,0.3244652,1.0471199,0.48759466,0.27936074,0.21803005,-0.035151873,0.32396087,0.20736983,0.17766663,0.35245615,0.46047664,0.33169752,0.33739373,-0.0465446,-0.16367042,0.009070487,0.38108173,-0.13514388,0.3759885,0.29404217,0.44338083,0.15497325,0.3796183,0.31691742,-0.60853237,0.08666991,0.15171254,0.5041789,0.17144828,-0.21526682,0.87264603,0.7013889,0.6415495,0.40117338,0.03967106,-0.17952704,0.23292533,0.42446333,0.75883377,-0.26944932,0.45517617,0.23650515,-0.022121795,0.5394775,0.20800693,-0.015597217,0.3112011,-0.010807446,-0.13696882,0.15480578,-0.13019708,1.2223977,1.10162,-0.12339191,1.1040626,0.36536464,0.19422807,0.35270634,-0.40731376,-0.039421,0.612396,0.3074665,0.38007942,0.44761026,0.15005818,0.58855253,-0.20710856,0.17112935,0.780115,0.7725565,-0.45033225,-0.18743569,0.9781108,0.7674496,0.59500945,0.68749624,0.49163795,-0.009787772,0.16242662,0.12931007,-0.5036674,-0.30171317,0.12727006,-0.0020029452,0.6448111,0.51559347,0.49914193,-0.09344335,-0.07231343,0.41557556,-0.19273847,0.1382831,-0.2723817,0.72489566,0.5135105,-0.07287135,0.026055902,-0.2847225,0.7753503,0.9002709,0.8784451,-0.47366962,1.4530001,-0.08217209,0.4849528,0.5288751,0.07418054,0.07788929,0.22571225,0.7475858,0.12932813,0.15543187,0.09667993,-0.14991696,0.33602807,0.09219655,0.42947972,0.59968466,0.5160482,-0.5057759,0.6926077,0.8565206,0.32772192
binoculars_16,0.3818891,0.8154787,0.6918747,-0.31167743,0.5679818,0.17985612,0.48625374,0.7943355,-0.22130759,-0.09610826,0.04582033,-0.06590984,-0.14049537,0.25901532,0.14124504,0.55594766,0.10215859,0.14175929,0.33716288,0.10247129,0.88224244,-0.036267113,-0.0098602325,-0.013031527,0.15314744,0.19386946,0.022232052,0.6444903,0.03860836,-0.06281237,0.13438077,-0.08106696,0.41457722,-0.18792257,-0.12474966,0.64490026,0.5749543,-0.01434445,0.069486454,0.07632231,-0.21677373,0.42814073,0.7387964,-0.24820004,0.09423243,0.42765844,-0.004603317,-0.21930175,-0.35048264,-0.068878144,0.28335184,0.13080497,0.035940494,0.057230566,0.019641154,0.059141688,0.32757553,0.44452012,-0.03862569,0.3581368,0.33753362,0.1009122,0.08203434,-0.14317094,0.21112141,-0.23430946,-0.0027450286,0.13601263,0.49671206,-0.13397668,0.7572036,-0.087945886,-0.0038279179,1.1486443,0.35449517,-0.052225776,0.041385587,-0.017492842,0.089953095,0.13034016,0.7605716,0.35293943,0.1885448,0.05817075,0.058656566,0.15485048,-0.14408173,0.040817454,0.05721607,0.16049233,0.10405625,0.07819883,-0.26928836,0.28471202,0.014618944,0.14682382,-0.022108871,0.18428895,0.23645134,0.51345724,-0.013363412,0.11018311,0.26856834,-0.0050176885,0.17137244,-0.099305116,0.14856265,0.6016149,-0.15394494,0.569612,0.48399895,0.37209305,0.2933596,-0.16539757,0.18096495,0.1719524,-0.016606003,0.98004186,0.10945683,0.37002233,0.6843137,0.6717217,0.38349655,0.780783,-0.0790261,0.037935436,0.573068,0.2441196
binoculars_17,0.22585209,0.58826375,0.50670505,-0.25222602,0.40855968,0.10594941,0.46319818,0.8689338,-0.14523731,-0.23351923,0.075368494,-0.09317298,-0.158159,0.22727779,0.11321661,0.39424375,-0.022796992,0.10702388,0.28702393,-0.0422102,0.77281445,0.098481394,-0.054894976,-0.036258243,0.16266933,0.17598912,-0.014413796,0.49075893,0.009187087,0.24254844,-0.005789906,-0.09096834,0.4795409,-0.2358571,-0.07065791,0.60615456,0.5749436,0.08857562,0.025319863,-0.03658838,-0.22946572,0.23800227,0.73904926,-0.22003673,-0.027067032,0.3506726,-0.0711323,-0.019388996,-0.3182396,-0.009277619,0.19556499,0.0821826,0.044251107,0.09117983,-0.14904366,0.043763407,0.3286688,0.32508963,-0.0075755296,0.40607113,0.32825089,0.08030115,0.106017105,0.024991013,0.26267573,-0.31736487,-0.089935675,0.24555174,0.42337742,-0.13414589,0.6099431,0.003565278,0.067206874,1.1883483,0.29886392,0.028766941,0.17704803,-0.14969204,-0.17903857,0.17440903,0.798046,0.31856567,0.1744363,0.055675566,0.12906986,0.053526245,-0.20480621,0.013704507,0.03531986,0.25479046,0.14870347,0.015187435,0.036175154,0.087327525,0.023302276,0.27638584,0.105469845,0.2869792,0.19264019,0.41761446,0.035773188,0.07572584,0.17916724,-0.053898945,0.055374853,-0.11108758,0.25652242,0.53241956,0.036558434,0.37555182,0.533898,0.27486268,0.11950053,-0.1167336,0.19251527,0.16227534,-0.08905079,0.9830558,0.3561628,0.19772959,0.58393955,0.52195644,0.29455668,0.7495499,-0.0039589414,-0.039284244,0.39177465,0.06875761
binoculars_18,0.018716903,0.92434084,0.2554079,0.311977,0.56384224,0.25289807,0.4713614,0.72772056,-0.021333827,0.27912876,0.022306357,0.013582243,-0.21652675,0.19501877,0.13744138,0.66878647,-0.14716916,0.62472236,0.11015569,0.23470119,0.8379588,0.10138856,-0.08264474,0.0029285923,-0.20311384,-0.124195695,0.1264479,0.7028168,0.09740022,-0.1699714,-0.14128137,0.12556386,0.25428867,0.13757175,0.01591834,0.57403594,0.16844258,0.244807,-0.1514717,0.035155,0.006522078,0.30941677,-0.005194405,0.043366738,0.22700804,0.50398827,0.20474893,-0.15840322,0.20728946,0.12704897,0.29045185,0.35475457,0.3020901,-0.013648115,0.15260787,-0.034860782,0.685172,0.78781986,-0.13425706,0.29139334,0.7655541,-0.21415071,-0.11437715,-0.20553261,-0.13193104,0.13114688,0.4635808,0.26012212,0.3325323,-0.055909883,0.3049373,-0.050572358,-0.009800604,0.30234855,0.7036747,0.14526613,0.22473335,-0.042610403,0.026718061,0.114918455,0.94874233,0.1768473,0.4003382,0.32523566,0.4218893,-0.28558162,-0.27632886,0.011950934,0.12429153,0.08360495,0.18786886,0.10545706,-0.20727013,0.5519839,-0.07658057,0.17609274,0.22063553,-0.01087524,0.47253078,0.3029894,-0.5200779,-0.016696006,0.1575759,0.054182805,0.2255788,-0.21490121,0.07172656,0.37940302,-0.08250499,0.6065016,0.3401781,0.43384498,0.042186294,0.14399226,0.4368208,0.09431323,0.16367513,0.4294405,0.2474045,0.11929886,0.6063916,0.7320594,0.30672252,0.46690497,-0.19784813,0.29956797,0.5320194,0.499815
binoculars_2,-0.15254532,0.6020661,0.74694663,0.57821965,-0.01580184,0.07196742,0.43504936,-0.29653087,-0.07048766,0.7124595,0.6882064,0.5692809,-0.31646276,0.9585497,-0.3361559,0.68302184,0.4855375,0.23138255,0.61856836,-0.04808532,-0.056468796,0.3238757,0.24146035,0.44977194,0.5633272,-0.49269426,0.5353744,0.7265253,0.27716208,0.31285012,0.061560474,1.0485357,-0.39062917,0.7346141,-0.14167768,0.9781101,-0.49650306,0.16915958,0.52063316,0.57299966,-0.02791606,0.11383496,0.17024983,0.3594867,0.26198053,0.5649396,0.855554,-0.31453383,0.7617612,-0.053648114,0.574279,0.8984828,0.13902162,-0.07899535,0.2756048,0.06407212,0.48685154,0.7583792,-0.3886313,0.1548983,0.7623875,-0.11248347,0.34275135,-0.40027088,-0.4157178,0.9515868,1.1634372,0.62703353,0.14064552,0.62656206,0.59977347,0.029986475,0.5899327,-0.07854652,1.030657,0.05450866,0.040074274,0.06954686,0.012468065,0.14123794,0.59574074,0.7072797,1.0321068,0.47280508,0.43416694,-0.46747828,0.16717097,-0.04246819,0.33714908,0.39634204,0.621106,0.93965775,0.12459564,0.74571735,0.22787516,-0.14585343,-0.08098945,-0.0636294,0.8547502,0.0679058,0.4994009,0.41180718,0.8707223,0.61027056,0.83197445,0.47895885,-0.22251083,0.0824273,-0.392893,0.1985601,-0.005161371,0.05070446,0.13036701,0.58548456,0.75806004,-0.079710916,0.7237012,-0.066094235,-0.5774165,0.21958306,0.5451047,0.7048995,0.4360687,0.43870738,-0.3720502,0.3070651,0.40351793,0.7238272
binoculars_20,0.1984296,0.67186546,0.6950474,-0.025950853,0.77775025,0.12518743,0.31989938,0.5781743,-0.15776728,0.051486786,0.20025495,0.21428731,0.15925057,-0.042903755,0.24268945,0.48808113,-0.0037198104,0.15003052,0.38951942,0.18537878,0.70016533,0.15528667,0.21000877,-0.062219486,0.36218688,0.010502636,0.41897026,0.49710718,-0.16033618,-0.0011785626,-0.026603017,0.0025136992,0.39920917,-0.1934348,-0.28176725,0.6761926,0.23770031,-0.03565712,-0.17751572,-0.20501497,-0.33616346,0.14337108,0.6068032,-0.30579478,0.23494686,0.5782421,0.07322083,-0.16732503,0.1914812,0.093184546,0.37922683,0.13492344,0.2264486,-0.12888905,-0.13819365,-0.070542514,0.5274174,0.64300454,0.013198078,0.42437637,0.47832954,-0.098073825,0.06410891,-0.08597672,-0.061900236,-0.24325994,-0.16435105,-0.0028597098,0.18692094,-0.25414133,0.68235916,0.24655381,0.25022817,0.83735925,0.5979514,0.08320047,0.3728754,-0.16834025,0.087485805,-0.0057541505,0.6401841,0.47103426,0.2833704,0.325702,0.2049011,-0.058722716,0.0907477,0.060455374,0.31443384,0.25064296,-0.026744174,0.22420427,0.047544546,0.42159832,-0.2996369,0.22773564,0.2205122,0.032913543,0.51701677,0.48062745,0.23060893,0.07125684,0.18549995,0.08999779,0.25646803,-0.018150881,-0.07775359,0.37028262,-0.055837423,0.42345524,0.58465445,0.09205334,0.041507486,0.10888739,0.24789725,0.09493164,0.18283802,1.0290722,0.3019269,0.24788699,0.51225966,0.8975525,0.12380813,0.40194252,0.06486986,-0.052740596,0.02904548,0.33711183
binoculars_23,0.3504277,0.04813259,0.12951624,0.13724618,0.42356542,1.0802089,0.0010038652,1.4257226,-0.2726125,-0.08530201,0.29410213,-0.17912792,-0.101627424,0.31469226,-0.28788465,0.13932939,-0.20791855,1.0630052,0.3823651,0.11253969,0.6862071,0.17017487,0.26264113,-0.09847872,0.072913855,-0.08486584,0.58776754,0.42507118,0.19398068,0.08830273,-0.106875576,0.47105774,0.23545721,-0.26894808,0.060435317,0.8359834,-0.1887355,0.7281323,-0.32638976,-0.17947546,-0.54191875,0.19758406,0.41826656,-0.22905974,0.5674926,0.7447885,0.3013574,0.0752408,-0.29499188,0.45402825,0.23982382,0.027038567,0.74345255,0.10403825,0.6535803,0.3411298,0.21930954,0.23850942,-0.35132486,0.20245901,0.9167631,0.1078046,0.2245386,0.25599283,0.5810902,0.0007485971,0.09469621,0.04855457,-0.16347916,0.04496969,0.15731204,0.4193582,-0.03946391,-0.052502483,1.4482477,0.21670741,0.41334122,-0.043609057,-0.05229233,0.38177523,0.47490785,0.25789925,0.25527203,1.0023885,0.81245285,-0.32276478,0.17931181,0.17766868,0.35528383,0.04308921,0.46409187,0.32767108,-0.20935155,0.99471015,0.23753901,0.051104896,1.0593082,0.29992533,0.3447656,-0.06987577,-0.20270708,0.40241367,0.5373004,0.14025572,-0.2222811,-0.23566988,0.8143574,-0.22039758,0.42385873,0.7308157,0.0058123227,1.3259078,0.1983432,-0.2713479,0.15212905,-0.041728135,-0.013581231,0.6830695,0.5152582,-0.2740105,-0.028988197,-0.17623398,0.101137474,-0.27810708,0.06539764,0.1626604,0.1426611,0.61916536
binoculars_24,0.26778588,0.88953906,0.63927656,-0.16507202,0.58203405,0.18944427,0.32814953,0.76924044,-0.06064871,-0.21966405,0.017750826,0.1407324,-0.07934868,0.17967775,0.35578293,0.43046734,-0.07818225,0.41238695,0.12639484,0.11848907,0.7891348,-0.01782122,-0.050751157,0.0103480145,0.18001439,0.036362525,0.17816421,0.68772113,-0.05490165,-0.10532785,0.19188328,-0.10054767,0.33725458,-0.22552466,-0.13112807,0.62131137,0.5672736,-0.010407213,-0.119357444,-0.100791566,-0.27313563,0.2987942,0.8631075,-0.35852128,0.048928056,0.2948201,-0.015218907,-0.14503813,-0.15226558,-0.027291946,0.26995885,0.18372709,0.23917562,-0.03394157,-0.14678365,-0.0041878857,0.36990747,0.5674967,-0.0525767,0.40937075,0.36429444,0.12351076,0.12787908,-0.028316189,0.13614151,-0.31805962,-0.2041384,0.093172915,0.40965706,-0.31915033,0.58918107,-0.0074610338,0.11969967,0.9569377,0.40021706,-0.07324778,0.23445225,0.05450849,-0.07760918,0.08045903,0.83999944,0.25933495,0.008336566,0.105610125,0.1920993,0.09364832,-0.12773627,-0.013956359,0.24058522,0.33522552,0.08156285,0.12619096,-0.11782552,0.3873288,-0.06529812,0.19315058,0.1891398,0.14696589,0.16619691,0.5793184,0.16317034,0.24666911,0.11054382,0.05507245,0.053393498,-0.23393014,0.08452001,0.5745651,-0.09488379,0.5801508,0.5267758,0.31564638,0.1493467,0.020807493,0.3222291,0.15852764,-0.24409997,0.80533487,0.43231422,0.19517371,0.50372493,0.62684304,0.30571076,0.7225905,0.14929453,0.3163141,0.6107052,0.20826356
binoculars_25,0.06805976,0.64367807,0.49446207,0.080614015,0.6362849,0.64354336,0.16626745,0.8351213,-0.25829092,0.03177839,0.13656917,0.106058866,0.14534909,0.2557503,0.35174924,0.27975312,-0.11717403,0.5338254,0.47596806,-0.0053747166,0.68985015,0.08115389,0.14403933,0.102689594,0.08610962,-0.34352374,0.44808674,1.0387204,0.114577204,-0.09492455,0.20660524,0.2724139,0.16085602,0.22832343,-0.23310414,1.0517863,0.22285816,0.32836202,-0.044910774,-0.070110865,-0.22713655,0.6344239,0.2588801,-0.26136458,0.18620245,0.37625176,0.16730341,0.062358845,0.09624765,-0.15210757,0.53735423,0.22534174,0.6095545,-0.07357237,0.26536873,-0.09004991,0.434881,0.41914183,-0.15835243,0.5942991,0.6011296,0.16261517,0.041130606,-0.267537,0.27275935,0.11639424,0.01770489,-0.1593634,0.3273805,-0.1267045,0.7739178,0.09941738,0.38073403,0.42217836,0.64047813,-0.041612692,0.37824267,0.026202949,-0.07261163,0.3153672,0.8584082,0.36144686,0.24082339,0.57104486,0.3345319,-0.20817602,0.101409346,-0.082440965,0.36225608,-0.12209107,0.47484142,0.3248035,-0.3187365,0.5540564,-0.12758915,0.00064441934,0.24353139,-0.008944109,0.42751646,0.2795421,-0.06478434,0.29756922,0.4038458,-0.021701748,0.05015132,-0.27136943,0.16839454,0.41351438,-0.16350971,0.5940376,0.33188742,0.50280243,0.14089364,0.23232211,0.3643279,0.0077833273,0.22746465,0.83093965,0.4207055,0.19879755,0.15720373,0.71563894,0.3524531,0.74379456,-0.007279725,0.2795613,0.4480991,0.3028311
binoculars_26,0.12319805,0.7593597,0.5808014,-0.058454078,0.57767093,0.34087905,0.24788928,0.69190204,-0.09515216,-0.119972385,0.25901857,0.32949898,0.066671826,0.3359158,0.34505755,0.17711322,0.1182169,0.31955644,0.27688205,0.13222274,0.70784026,0.13398348,0.02885098,0.06615007,0.19756855,-0.05509855,0.28457507,0.72336996,-0.12196396,0.10097063,0.1933545,0.14750548,0.22394112,0.034751903,-0.25057286,0.5963601,0.32260647,0.103261754,-0.004920777,0.019038722,-0.046470318,0.38106585,0.59351456,-0.19822808,0.032472953,0.23682034,0.25900573,-0.12362601,-0.17885485,-0.014426008,0.20831645,0.14780687,0.24513969,0.068205595,-0.05321668,-0.20844597,0.44991875,0.32643566,-0.22657155,0.29873163,0.33461827,0.16482079,0.20670654,-0.018320318,0.3126658,-0.14536825,0.007499449,-0.07175559,0.31929561,-0.17700242,0.7078701,0.009956874,0.19593643,0.78522867,0.4272573,-0.11759963,0.23813114,-0.03225987,0.03418435,0.15497339,0.8718742,0.3699296,0.30161005,0.17598462,0.19978672,-0.218891,0.07595387,-0.15781598,0.2139458,-0.04189773,0.16393276,0.13421106,-0.107084125,0.21477285,0.010528732,-0.06379165,0.2254188,0.23916559,0.35028964,0.46550515,0.06771349,0.19941436,0.23813978,0.010119897,0.09671678,-0.27218089,0.059603136,0.5469974,-0.18397547,0.36814892,0.57662845,0.20034954,0.16517965,0.010519069,0.35897297,0.28122455,-0.066907264,0.5395934,0.42882964,0.23728827,0.53961694,0.6286547,0.5029842,0.79349595,-0.08995421,0.2638878,0.4273326,0.1704621
binoculars_27,-0.038172625,0.5481918,0.5930514,0.4465911,0.30433607,0.03390097,0.37873963,0.8847574,-0.020017505,0.12391154,0.4884435,-0.2970089,-0.101889096,0.410068,0.048268482,0.4697586,0.104499094,0.06255238,0.43371212,0.06660474,0.45290923,0.25579366,-0.17745528,0.22216967,0.6184325,0.20682493,0.22264184,0.4535695,0.0021712705,0.091933265,-0.090264834,0.40844366,0.397388,0.24428278,-0.062830254,0.37386253,0.37910327,-0.114794105,0.0995495,0.23112646,-0.3628186,-0.08975886,0.34306473,0.21496375,-0.15913244,0.19029024,0.28263056,-0.031760935,-0.12270192,-0.21496844,0.5604042,0.31977522,-0.21468821,0.23815969,0.012151733,0.01905293,0.4582784,0.6003281,0.10323029,0.38910314,0.61169624,0.21091206,0.29271847,-0.4294126,-0.09466218,0.6732153,0.34586596,0.34688374,0.47872823,-0.026958738,0.9500645,-0.07920964,0.15311132,1.2371728,0.29772568,0.046293873,-0.2752881,0.17889531,0.21279511,-0.04056325,0.7298903,0.49203613,0.35955182,-0.14218198,0.22258246,-0.33915347,0.045325525,-0.103896245,0.19561486,0.10916269,0.42166883,0.36721784,-0.09355916,-0.18843016,0.3024766,0.14777395,0.044967122,-0.115133435,0.96104455,0.35370705,-0.31996432,-0.24426539,0.07902269,0.2287085,0.23605023,0.06365865,-0.08671956,0.75043744,0.043579973,0.6576136,0.6519464,-0.06784338,-0.23889871,-0.012614518,0.4027152,0.09132045,0.6646293,0.9462738,-0.21376508,0.30123922,0.69546986,0.7079432,0.30628437,0.39007288,-0.26568365,0.011776216,0.47654885,0.42911646
binoculars_28,0.20949356,0.672597,0.4113824,0.12646745,0.24506299,0.16546726,0.33332714,0.8415083,0.09225661,-0.16377954,0.002288811,-0.1513324,0.10915834,0.16215622,0.19754359,0.63995385,0.06567473,0.12888464,0.41124722,0.18527831,0.6762684,0.13935804,-0.049392343,-0.10460603,0.41690952,0.20485161,-0.022777352,0.29982048,-0.03522659,-0.1052613,0.08658691,-0.16944647,0.31800547,-0.17593211,-0.06595751,0.618178,0.42418456,-0.044863854,0.14731392,-0.037650853,-0.27595744,0.13920856,0.60040385,-0.2963524,0.013137473,0.4542061,0.12894353,0.02033402,-0.20904237,0.08481036,0.20184791,-0.07320808,0.014562703,-0.042313743,0.07862054,0.046075642,0.4460136,0.57617533,0.0538263,0.55201757,0.49512213,0.1571695,0.19844502,-0.21003968,0.09990001,-0.20703633,-0.066578776,0.28798717,0.65416604,-0.24709763,0.4955595,-0.23892435,-0.08478729,1.2266325,0.27140346,-0.101918824,0.2034696,0.004238475,0.13939127,0.29418617,0.5045639,0.17055549,0.100452825,0.10096674,0.052134864,-0.006059509,-0.10730329,0.039505947,0.2340757,0.27372468,-0.018905321,0.1272521,-0.122590914,0.22277412,0.14469187,0.20893297,0.21461764,0.098320074,0.4466312,0.49966815,-0.05420936,0.14922138,0.30109435,-0.07229602,-0.038150564,-0.035561703,0.09973484,0.5680679,-0.11701072,0.5619655,0.6138275,0.3213187,0.18070783,-0.03805305,-0.014368333,0.2950712,-0.053896703,0.84131247,0.07831067,0.343671,0.6067729,0.7050088,0.14901413,0.6841306,-0.08266632,0.046700053,0.21268171,0.27488035
binoculars_29,0.11578143,0.8465556,0.78776145,-0.027708631,0.7296636,0.34300274,0.18047497,0.64289486,-0.1284053,-0.001478171,0.25337705,0.35051823,0.099476725,0.39013937,0.35282463,0.2213383,0.0009492487,0.35056138,0.2526664,0.121448874,0.7338141,0.14359519,0.20582184,0.02481173,0.103721485,-0.083455145,0.45433474,0.83680415,-0.13684736,0.0068503562,0.22414856,0.10043344,0.16196097,0.09439683,-0.27616706,0.7300549,0.25788975,0.027185552,-0.012559816,-0.0037555024,-0.13332872,0.27951875,0.5362998,-0.33469307,0.2759425,0.20245737,0.40868253,-0.24756958,-0.12224085,-0.08804706,0.27361763,0.1369036,0.17864466,0.13478608,0.04188303,-0.32436603,0.38931304,0.41319957,-0.34630984,0.36877528,0.23687649,0.08062962,0.3520274,-0.016889062,0.37757155,-0.13401037,0.027280828,-0.016657043,0.26296502,-0.12768304,0.8210209,-0.03252964,0.19685256,0.70408887,0.3395204,-0.09999349,0.2563094,-0.15951729,-0.12893522,0.227231,0.77595675,0.49755585,0.33514312,0.22828567,0.38585234,-0.1858716,0.121162534,-0.05559699,0.23822053,0.027212393,0.18034995,0.1394166,-0.18384464,0.3567392,-0.087798566,0.031879883,0.2966858,0.1570721,0.54022,0.43148306,0.14610666,0.16334441,0.28614402,0.053530104,0.23515289,-0.34260163,-0.17972863,0.56538653,-0.1923468,0.5295823,0.46445727,0.18355024,0.27048007,0.03843578,0.32519752,0.20386478,-0.03521266,0.5245648,0.42324457,0.32142353,0.69950265,0.60022104,0.38447642,0.65169656,-0.26109517,0.28938732,0.5050911,0.25878364
binoculars_3,-0.07761019,0.8465223,0.5027663,-0.06940724,0.44615632,-0.089872316,0.33304253,0.71613705,0.05379407,-0.2011199,-0.07646919,0.06387671,-0.017988691,-0.15606254,0.1676135,0.58648616,-0.049416553,0.20483887,0.32214877,-0.091507085,0.5183234,0.1747675,-0.04138626,-0.046753347,0.23789003,0.1236632,0.22529042,0.53794533,0.124276474,-0.12137655,0.12913713,-0.12888661,0.33254826,-0.20699781,-0.13126245,0.57875204,0.55975664,0.007105306,-0.010139644,0.13459638,-0.22322214,0.37819698,0.60992515,-0.29711533,-0.08450174,0.3056132,0.030509617,-0.18061079,-0.31017092,0.12521902,0.29819608,0.044263195,-0.05782215,-0.06773292,-0.1246077,-0.15831041,0.52585745,0.60748494,-0.065076046,0.4463165,0.19281396,0.19274025,0.10054287,-0.16605148,-0.060965605,-0.09944175,0.0010410063,0.013255617,0.69144326,-0.18212548,0.6772514,-0.24994728,-0.028729405,1.2874823,0.20129135,0.037929624,0.13950294,0.07230407,0.06033735,0.14037055,0.6223064,0.18034749,-0.035097186,0.14764842,0.18279797,0.018188074,-0.12410803,0.05645669,0.08183167,0.14249572,0.008886589,0.16657704,-0.17210883,0.12996423,-0.092800744,0.24242201,-0.025104467,0.1304239,0.43561333,0.5457831,-0.009105291,-0.050917454,0.02328306,0.100638,0.22809424,-0.20256191,-0.1433869,0.6419467,-0.009725323,0.44603997,0.7770968,0.040155046,0.021923885,-0.055118576,0.34802437,0.115370534,-0.02662275,0.8616011,0.12157144,0.38901842,0.5465074,0.72850996,0.243223,0.6970144,-0.09714886,0.08614397,0.41148394,0.12808901
binoculars_31,-0.046565913,0.62840575,0.41974807,0.06856809,0.53586,0.21422274,0.40107974,0.8642938,-0.1670199,0.13149902,0.16573985,0.09987061,0.1132669,0.45404506,0.17758462,0.28031155,-0.10078585,0.32874063,0.1699813,0.06916885,0.5096163,0.22336903,-0.07231531,0.057134934,0.21135867,0.22151533,0.13683996,0.6755433,-0.10651882,0.11795793,-0.07400815,0.3291133,0.3628814,0.04414033,-0.18968752,0.5010655,0.39379814,0.050945155,0.027969807,0.0224495,-0.19254375,0.39200848,0.37138668,-0.07673895,-0.2527741,0.035970464,0.03941919,-0.107746124,-0.2052291,-0.19323853,0.34525058,0.116465345,0.18314657,0.12465508,0.08322502,-0.098148614,0.4303182,0.3012799,0.12157173,0.3412222,0.24345626,0.026850186,0.18291835,-0.1739936,0.23362115,0.10621226,0.08470382,-0.050617985,0.36709294,-0.12158728,0.69732916,-0.08136767,0.08778015,0.9522357,0.40531382,0.003076911,0.09331262,0.07385118,0.058363788,0.0044926433,0.7138727,0.5081776,0.20922731,0.1921365,0.2197338,-0.24980372,-0.06480113,-0.06655528,0.19762823,0.03956846,0.37752786,0.07410335,-0.055675812,-0.07583774,0.03552214,-0.052483775,0.09798317,-0.01823134,0.5059376,0.2570876,-0.20061581,0.035993513,0.05110088,-0.055146195,0.18824993,-0.23319325,0.23318496,0.6509906,-0.011659133,0.35404664,0.47993702,0.38696167,-0.097965315,0.033145018,0.25359905,0.0284377,0.10647091,0.6822763,0.17586227,0.22180581,0.7266687,0.76289046,0.42523384,0.8477595,-0.23730204,-0.02724173,0.3810742,0.13216753
binoculars_32,0.33885363,0.48963842,0.35470012,-0.076437175,0.61903244,0.42590785,0.35699728,0.96413404,-0.25143746,0.24286057,0.14599507,0.15118097,-0.13870327,0.4799162,0.32924527,0.1687518,-0.02824558,0.66039836,0.1801618,-0.19894484,0.8325962,-0.012690825,-0.020550996,0.016779635,-0.0990812,-0.08703314,0.07004467,0.9361707,0.05237213,-0.04468342,0.01195362,0.20275405,0.19672921,0.18652266,-0.11494201,0.7688368,0.48550284,0.35794896,0.004102353,0.0033333525,-0.25655723,0.648768,0.42282143,-0.18239667,0.12982976,0.13770792,0.225285,0.016985938,-0.35228336,-0.051096976,0.26978233,0.1692554,0.22443525,-0.03372435,0.2520303,-0.03491564,0.3888514,0.31198716,-0.19425766,0.19186394,0.23986581,0.118030384,0.099404775,0.014714133,0.55533916,-0.025596155,0.15437599,-0.22898753,0.25179434,-0.13658836,0.75135434,2.4192035e-05,0.060782835,0.7031292,0.6172663,-0.013955124,0.24846071,0.0752749,0.04516792,0.26037148,1.0002884,0.37916997,0.39455742,0.3211347,0.23992151,-0.093027994,-0.032385014,0.13499875,0.11810387,-0.12973739,0.40427676,0.19028562,-0.15807627,0.28735113,0.038581546,0.05771977,0.20761877,0.36537862,0.05462301,0.41597173,-0.2439119,0.19224587,0.19804624,-0.11543889,0.017869262,-0.11530461,0.27624115,0.56730497,-0.13100027,0.5023932,0.1948838,0.918432,0.3756058,-0.12160139,0.271192,0.14402959,0.08839398,0.65321434,0.26990095,0.054653347,0.44905686,0.6857061,0.62646735,0.8588048,-0.19315621,0.28434953,0.6437946,0.076376855
binoculars_4,0.10216966,0.74537903,0.2804872,0.09455645,0.85971373,0.5628497,0.22761217,0.87480706,-0.16278733,0.018562946,0.04801209,0.20880005,0.002124739,0.6486618,0.2894742,0.49319014,-0.2224159,0.9564123,0.18126889,0.1726208,0.59844637,-0.07043223,-0.13308099,0.111243695,-0.18032177,-0.29703593,0.2718838,1.2122552,0.1769917,-0.030607834,0.054002836,0.60014707,0.04535063,0.20893508,-0.38357398,1.0921171,0.4968116,0.07117183,-0.22671378,-0.2103293,-0.3813082,0.86372393,0.0032246597,-0.1262066,0.089429334,-0.046431147,0.33714902,-0.13564496,-0.00048055127,0.30555344,0.2786246,0.1376096,0.71884155,-0.33343968,0.30299965,-0.42876,0.54230183,0.22164682,-0.06184002,0.38124636,0.32910907,-0.061191507,0.2931694,-0.25020683,0.17372803,0.040785007,0.31662568,-0.38023037,0.25844783,-0.05233139,0.6719236,-0.067778945,0.35095543,0.1669947,0.9636033,-0.031354368,0.15585199,0.12747647,0.12481563,0.29929328,1.0929649,0.367828,0.21198156,0.66496885,0.010762664,-0.43395403,0.29176134,-0.17016438,0.112445325,0.131081,0.75605947,0.2527434,-0.18388002,0.29169744,0.1363189,-0.11871358,0.47404718,0.08564342,0.34331512,0.1110054,-0.3473782,0.5484115,0.12864174,-0.16027282,0.25134212,-0.0975771,0.3121527,0.49553072,-0.30781442,0.5258253,0.055805393,0.7949224,0.3655154,0.13314356,0.39772958,-0.082968116,0.09292564,0.0747566,0.37687108,0.05790203,0.33923835,0.8913623,0.46366984,0.8474205,-0.0070274835,0.4485473,0.6848168,0.38319662
binoculars_5,-0.084990315,0.7542143,0.46693438,0.55035776,0.5274881,-0.043449916,0.53884405,0.640173,0.18638416,0.22210474,0.04875667,0.39484334,0.10825246,0.40375942,0.30786693,0.37198988,0.24637869,0.39755785,0.2723498,0.03946919,0.2593524,0.18515289,0.13531788,0.35930187,0.55772185,0.2146014,0.2068118,0.44561052,0.030777883,-0.07418634,0.004028205,0.5902602,0.24899627,0.04854888,-0.12686679,0.42668602,0.654313,0.2572395,0.21911585,0.062813416,-0.2458919,0.29147318,0.20623435,0.4425686,-0.39080864,0.1949476,0.2777521,0.012938469,0.010226641,0.049285382,0.22223985,0.27172926,-0.024614453,0.07638353,0.03991294,-0.1282866,0.71899766,0.5443499,-0.036235593,0.50579894,0.36673933,0.06781474,0.2473933,-0.2899709,-0.058836512,0.4618289,0.30697334,0.07069402,0.79815745,0.10926613,0.97477657,-0.114140436,0.28902647,0.79936,0.5526566,-0.2466242,-0.16091144,0.4336986,0.4900432,0.090042844,0.51278,0.68262655,0.39129156,0.102421515,0.3121716,-0.50171834,-0.22276466,0.16550452,0.13634218,0.20390715,0.3366075,0.46945095,-0.15759768,-0.08002367,0.17075674,-0.05427835,0.2815071,-0.11018124,0.9915026,0.5017547,-0.18365955,-0.17240044,-0.06120196,0.3353851,0.60943365,0.3674353,-0.2545971,1.1239907,-0.031718962,0.3779828,0.7182126,0.17588687,-0.17834868,0.11875594,0.4702034,0.14837572,0.3709371,0.5631192,-0.1916923,0.43312553,0.5797982,0.7473998,0.5586078,0.59427863,-0.33071974,0.15124539,0.48778585,0.46449244
binoculars_6,0.1092428,0.68581426,0.3516813,0.3513584,0.6292767,0.35500714,0.3517118,0.88210326,0.097624265,-0.13908616,0.1547181,0.16324607,-0.026403857,0.27524447,0.16156062,0.5938822,-0.08475259,0.60242176,0.07212973,0.14652722,0.6098309,0.3070684,-0.013909213,0.10420692,0.2020914,0.11880722,0.1513056,0.7934581,0.0988875,-0.10146036,-0.037596088,0.38117194,0.25577176,0.009492606,-0.25732523,0.76081085,0.3958529,-0.031423073,-0.06641465,-0.07704844,-0.019425217,0.37755758,0.17555216,0.15468329,-0.077121064,0.11835985,0.24304092,-0.19166312,0.10417445,-0.04130476,0.26927748,0.15261388,0.24473982,-0.27354622,0.029543515,-0.30682147,0.7164994,0.5486529,-0.1189791,0.4930275,0.5607896,-0.0659637,0.22291239,-0.30537298,0.051213995,0.23815782,0.1664754,-0.046145722,0.39801878,-0.051167864,0.83176917,-0.2479558,0.14618124,0.64619863,0.70657367,-0.131769,0.030087236,0.07647902,0.20720415,0.20749629,0.9580019,0.3473246,0.21058837,0.112617254,0.21077889,-0.4547397,0.100852415,-0.14332129,0.24485669,0.070864424,0.16651541,0.17624313,-0.0238645,0.13712949,-0.13976364,-0.10304599,0.38030428,-0.21290767,0.92815584,0.19806637,-0.01637143,0.097470805,0.08351429,0.08388153,0.38680482,-0.10067681,0.0120512005,0.67477596,-0.26519084,0.55957013,0.4779336,0.30579236,-0.070760995,0.14292395,0.41034204,-0.08549973,0.3686924,0.38027123,0.044851135,0.30527955,0.5920632,0.73992133,0.31171185,0.5970827,-0.21914983,0.23739535,0.43506414,0.2831219
binoculars_7,0.06895373,0.20080051,0.6628622,0.118046,0.26225582,0.21101229,0.5421694,0.99775904,-0.097038455,0.05034537,0.2744974,-0.28397632,0.05342426,0.30649486,0.093674526,0.29579943,-0.08175479,0.000117219985,0.5190628,0.010586852,0.85024667,0.26085734,-0.05079665,0.01351586,0.21086547,0.1371113,0.1545745,0.5491118,-0.06328203,0.17489424,-0.093822785,0.21585444,0.46561295,0.009127401,-0.20532319,0.42303073,0.42431733,0.07803831,-0.007849187,0.10810591,-0.27541423,0.18031867,0.5728103,0.032032173,0.006585098,0.09682132,0.13374749,-0.005516189,-0.28716782,0.07578725,0.31116498,0.15882789,0.19081777,0.100262344,-0.06615816,0.0825961,0.21029884,0.5885111,-0.09448828,0.44332793,0.477758,0.15417917,0.11566354,-0.092790306,0.27838427,-0.033997033,0.23306893,0.1722175,0.50221866,-0.07983756,0.6486679,0.16986847,-0.114910305,1.3631806,0.24775371,0.18073863,0.015650585,0.17077701,-0.12153005,0.06229547,0.33627364,0.4446148,0.3629078,0.18570961,0.29228547,-0.24875286,-0.070161305,0.21597147,0.12725689,0.06636615,0.3304461,0.32497475,-0.20391913,0.1241165,0.14367174,-0.029305533,0.06849721,0.21821715,0.46076828,0.25052977,-0.19147551,0.20243514,0.45796818,-0.069744766,0.18042104,-0.06425438,0.13488351,0.41511497,0.0005800184,0.49696344,0.47594148,0.2551277,-0.10233714,-0.27055103,0.026659705,0.2613577,0.053747382,1.0157104,0.030445918,0.25891438,0.6573353,0.7184098,0.5197118,0.5076799,-0.20369206,-0.23370972,0.10443181,0.32940096
binoculars_8,0.764841,-0.55613935,-0.09567596,0.29345757,0.58524555,-0.15155251,0.15766776,1.062164,-0.3592137,0.06020753,0.39267316,0.1730561,0.11021448,0.30926633,-0.57279587,0.48776653,-0.43128365,-0.5668361,0.4267152,-0.21519707,0.80341357,-0.04802551,-0.046185315,0.075415604,0.63396776,0.3448524,0.12083264,0.24979284,0.04857042,0.07238388,0.6089375,0.55655456,-0.0506547,0.26283836,-0.47502616,-0.36613867,0.7441824,0.19263567,-0.13258019,0.4294343,-0.4240073,1.0286218,0.94522405,0.3967017,0.4654569,0.29247737,0.016972514,-0.14521593,-0.31810603,0.03651337,0.5187776,0.019527234,0.007647852,0.121986434,0.13415633,-0.24509388,0.29228207,0.7160182,0.023185257,0.47390804,0.34103525,0.14215717,0.54653597,-0.23303351,0.10772261,0.28155732,0.23794165,0.45324397,0.72558254,0.55117327,0.89834756,-0.15902328,-0.03813674,1.3149933,-0.48217,0.25741234,-0.12139859,0.074836455,0.45616212,0.35114995,-0.39011723,0.7799436,0.56065124,0.08846981,0.21204889,0.3237463,-0.12192072,0.009553456,0.035220876,-0.48151755,0.30282095,0.5285758,-0.2836293,0.49442026,0.014066294,0.49205106,0.12378165,0.513648,0.52239764,-0.3062357,0.08795941,0.50266564,-0.10245836,0.3467817,0.63596743,-0.16798219,0.19063784,1.0527316,0.071235634,0.72217894,0.9870498,0.04156833,0.14388824,0.051832385,0.10929328,0.8723709,0.9814099,-0.60194695,-0.1350192,0.5948619,1.4502103,0.6889577,0.7337526,0.937992,-0.3070336,-0.0009994134,0.7054473,0.30184996
bottle12,0.37936935,-0.21826872,0.32447422,0.33029038,-0.1693748,0.041929197,-0.2574022,0.05267467,0.27582425,0.49666548,0.5804035,0.022387609,0.21819611,0.4401016,0.015290592,0.023528337,0.02619875,0.012749191,0.2126895,0.43075845,-0.09444159,-0.004978069,-0.009612374,0.51507866,0.5052484,0.19197749,0.7440041,0.293059,0.099388614,1.1484516,0.6535768,0.78220195,0.2622875,0.65183693,0.03768056,-0.18850753,-0.029293675,-0.0003506206,0.63538176,0.7297066,-0.13769704,-0.109926045,0.06995489,0.28672004,0.5047936,0.20939612,0.50673145,0.33574262,0.37428415,0.02438856,0.5736679,0.453728,0.14857958,0.36013284,0.120921105,0.39412597,0.1748875,0.025995828,0.23842399,-0.01630856,0.08667888,0.014045969,0.25223306,0.26912525,-0.039342068,0.7944341,0.30936968,0.8372994,-0.2362712,0.8194453,-0.048058342,0.2717624,0.3987735,-0.21146584,0.1356725,0.64817303,0.08029399,-0.09884523,0.12635726,-0.018063243,0.027336154,0.21914105,0.50817984,-0.110573694,0.5481774,0.21359575,0.21770476,-0.12090379,0.5592478,-0.079486564,0.17830022,0.1532382,0.46092463,0.11024632,0.38629857,0.13441408,0.6539851,0.041568365,0.040929515,-0.07597443,0.26789787,0.315632,0.32339668,0.3140746,0.28419688,-0.3530754,0.3641004,-0.2901659,0.566138,0.1964076,-0.27274776,0.5692827,-0.029881138,0.30218983,0.0947701,-0.14007556,0.5373273,-0.116303906,0.40029806,-0.08654279,0.049918294,0.1316685,0.3196635,-0.27661598,0.4422273,0.11628239,0.33990186,0.7462313
bottle13,0.51608,0.017735995,0.5064346,0.073604,-0.50483674,0.2068559,0.061609514,-0.51765424,0.46977457,0.607325,0.5403729,0.085141696,0.40710628,0.15042755,0.3453402,0.24556753,0.18078718,0.0075986944,0.37761056,0.5949686,-0.11370434,0.012248895,0.22758043,0.821123,0.45635226,0.20353329,0.556892,0.23348956,-0.007545816,1.0600283,0.8146799,0.562248,0.02657947,0.22539318,0.46824586,-0.20859918,-0.039065953,0.047433216,0.8067918,0.5003886,0.19265474,-0.13520503,0.09064713,0.8007513,0.4569038,0.0073162876,0.22786352,0.06359911,0.26306263,-0.016295,0.5281733,0.1053696,0.12524281,0.3706321,-0.18212417,0.6460051,-0.0759666,0.2364963,0.30790517,0.13094977,-0.055672053,0.25887161,0.45845813,0.5618783,0.18102242,0.40217274,0.24065614,0.9583369,-0.05008882,0.77953625,0.0003277734,0.34382325,0.66566455,-0.47494644,0.2917932,0.6870555,0.2589789,0.024023352,0.3598381,0.28381673,0.16811791,0.026562707,0.41235694,0.0239649,0.1939179,0.44657582,0.13448411,0.14202069,0.45166233,0.45412594,0.05228015,0.5845158,0.51374185,0.35868648,0.38594902,0.2720741,0.15650952,0.045907035,0.19467771,-0.2155113,0.46358272,0.36722022,0.14232472,0.50407237,-0.027552849,0.25105366,0.5810143,-0.10697051,0.46784833,0.1594615,-0.12509573,-0.028305039,0.05210459,0.9590123,0.28825212,-0.03749639,0.6169657,-0.39441997,0.17808044,0.2163952,-0.0592556,0.21288115,0.38100234,-0.31958625,0.8772618,0.27627265,-0.051281344,0.37418422
bottle15,-0.15448362,-0.37967217,0.65671885,0.9295082,-0.45001462,0.09454819,-0.27116257,0.17769185,0.042715475,0.79919887,1.4226233,0.20288351,0.09557604,1.0163381,-0.56916463,-0.08618639,0.118602976,0.12363733,0.855071,-0.2786847,-0.029190782,0.14988892,0.5178864,0.8742326,1.1494825,-0.5109346,0.5965883,0.75054604,0.052804317,1.3733921,0.7188681,1.5377665,-0.477659,1.3086472,-0.11095908,0.01113555,-0.61516464,0.0056396984,0.8777972,1.1120293,-0.066199504,0.06962006,0.059039976,0.41324484,0.37395015,-0.07345762,0.80941576,0.042527862,0.6483386,-0.19782332,1.4916991,1.0680263,0.23307578,0.020075459,0.2812774,-0.0059692394,0.015633233,-0.125479,-0.12235442,-0.3812381,0.99086905,-0.1645009,0.9307439,-0.08664253,-0.06586244,1.4387636,0.9007022,1.0196108,-0.067192614,1.4568101,0.6577362,-0.14981991,1.0206627,-0.2948264,0.19516598,0.70072037,0.28660676,0.031740867,-0.5190735,0.1326708,0.1882384,0.62026227,1.2691399,-0.36686736,1.104729,-0.25038427,-0.23916954,0.13791156,0.7599269,0.12558226,0.8268304,1.005084,0.0023208335,0.22417161,0.53567684,-0.25266096,0.17575733,0.08895217,1.0137073,-0.35106146,0.7317211,0.25165063,0.9074741,0.8349374,0.4289751,0.2114819,-0.19111845,-0.066101745,0.11151205,-0.013695866,0.0079959445,-0.030567717,0.10645695,0.76202846,0.48511702,-0.21767211,0.9440281,-0.4324514,-0.5028729,0.075484715,0.5180974,0.71319544,0.8280623,-0.094961345,0.13691011,0.09042272,0.32576883,1.3141843
bottle26,0.40295863,-0.2587765,0.23015212,0.07653905,-0.3870179,-0.13455027,-0.030219518,-0.260588,0.46118817,0.844101,0.15650308,0.67139083,0.06910629,-0.03255535,0.42604887,-0.043089144,0.101190895,-0.28325427,0.6068143,0.4466482,-0.24724597,-0.20602806,0.31020913,0.92657775,0.5807518,0.05649943,0.70427054,0.15686828,0.095804036,0.9943741,1.064837,0.31418198,-0.20284067,0.5427694,0.31242514,-0.12659323,-0.22728966,-0.19218464,0.8630372,0.691094,0.568999,0.11187139,0.14732252,0.72097546,0.44940495,-0.13087764,0.1814081,0.41835162,0.19567397,0.027135374,0.42847073,-0.0518726,0.15849967,-0.002315756,0.08159922,0.25775236,-0.054511264,0.19028836,0.16189407,-0.10666975,0.36632556,-0.0067972234,0.30889764,0.21621312,0.09690064,0.50829166,0.08380853,0.5394768,0.026516858,0.8035328,-0.11569033,0.29125682,1.1475903,0.09702801,0.13194022,0.84581685,0.42106745,0.095542334,0.3127489,-0.08589621,-0.034724746,0.25472182,-0.057152066,-0.18290873,0.26915142,0.72114545,-0.15018007,0.07136694,0.36387712,-0.048665777,0.16223226,0.23950136,0.27457023,0.20975602,0.04795218,0.20212913,-0.2255799,0.18290316,-0.010070633,0.0755445,0.3768832,0.36859387,0.16613196,0.01989014,0.11193539,0.24780333,0.38462445,-0.05307456,0.3609678,0.25106192,-0.020618623,-0.45046806,0.29485506,0.7788573,0.019207008,0.23474056,0.52448124,0.019323803,0.40957606,0.3674836,-0.04305029,0.15734231,0.22480482,-0.051854435,0.76919425,0.04224644,-0.14834264,0.4201185
bottle27,-0.10730498,-0.13678887,0.40654793,0.96385735,-0.70735484,0.16615261,-0.31657636,0.011481162,-0.03531453,0.30093056,1.2337867,0.51346517,0.038800675,0.93552667,-0.47093338,0.062855236,0.10314378,0.23866794,0.6622224,-0.28264508,-0.26405007,0.24562605,0.3474086,0.7168261,0.88812834,-0.13364455,0.5255199,0.6573139,0.24493894,1.0305029,0.8021072,1.2709553,-0.27354142,1.0971609,-0.102211535,0.0456445,-0.43137437,0.29682,0.42091984,0.78914,-0.33561188,0.20043646,-0.044559762,0.62399566,0.4308273,0.10026269,0.86984926,-0.00016550533,0.76091766,0.117282696,0.88056546,0.8566883,0.1566496,0.045730013,0.1514521,-0.11500866,-0.118531,-0.09631723,-0.019829024,-0.198554,0.85051465,0.01934069,0.916764,-0.024157066,0.06678568,1.0628871,1.0290991,1.2856599,-0.18391348,0.97215295,0.56525314,-0.26166528,0.62668306,-0.09748564,0.058628947,0.6202995,0.024645336,0.07454741,-0.29144156,-0.06983441,0.082935,0.39245936,1.0520729,0.3607462,0.825126,-0.44001633,0.20019041,0.058131475,0.57654876,0.33251005,0.97626215,1.008647,-0.10071783,0.47474298,0.48880672,-0.23006168,0.13986437,0.21135591,0.58666706,0.05919432,0.2946152,0.23057543,0.86157846,1.0870808,0.502502,0.41912535,-0.1720197,-0.21508577,0.0022622533,-0.3569739,0.16263144,0.13961609,0.07084717,0.30079615,0.5295503,-0.05162704,0.73191965,-0.3231858,-0.101651385,-0.25175607,0.45700926,0.60020775,0.73190856,0.1441925,-0.19131899,0.1893782,0.58432704,0.9944848
bottle_s001,0.5247016,-0.025334373,0.10874331,0.019834045,-0.45811257,0.37215653,0.111126065,-0.5423444,0.43175104,0.9064595,0.1483245,0.4724479,0.18561889,0.028609574,0.44771063,-0.14542574,-0.19356725,-0.27030087,0.0656338,0.28430513,0.024247633,-0.0977183,0.4558462,0.42066947,-0.124745205,0.14894174,0.43201235,0.52405363,0.116375774,1.0276219,0.6713328,0.32866243,-0.14586051,0.061150573,0.32362926,0.13650483,-0.06848088,0.060243152,0.5180429,0.62240624,0.27412724,-0.23855396,0.031047951,1.1509889,0.94445974,0.08563192,0.054728538,0.053123277,0.025773233,0.3320534,0.21413532,-0.06610502,0.17334208,0.075611204,-0.41944647,0.32698637,-0.4009473,0.073624246,0.42907748,-0.030737942,0.070251815,0.106193036,0.54443073,0.7225109,0.41094384,0.2716651,0.3513091,0.69757324,-0.44059,0.6459987,-0.3024862,0.26577368,0.9627377,-0.34140235,0.10462983,1.3189228,0.6323788,0.13111265,0.14378504,0.12979403,0.30217284,-0.082159415,0.41006395,0.44523042,0.12664768,0.58163035,0.30447227,-0.030282473,0.3724507,0.3188847,0.030549707,0.35529378,0.41623557,0.3525596,0.014715508,0.58143973,-0.05695783,0.2191678,-0.1193296,-0.48461056,0.4438505,0.28566557,0.23907119,-0.012697453,0.10958972,0.32386273,0.49091196,-0.13203792,0.214626,0.37160975,-0.48193336,-0.35475767,0.37426192,0.5804235,0.2541548,0.39774114,0.51042634,-0.32825786,0.80142206,0.0017162785,-0.16577753,0.06827787,0.25066683,-0.14531465,0.9326829,0.66304785,-0.12755464,0.10057248
bottle_s002,0.09204874,-0.07756205,0.2893382,0.73696434,-0.98730046,0.28259763,0.3871714,-0.45120674,0.18182811,0.69884366,0.67105705,0.43524283,0.21490863,0.50650537,0.014293823,0.2010084,0.10404342,-0.15150845,0.738541,0.07236077,0.28841332,0.121493585,0.5786712,0.7085091,0.4155882,-0.2977243,0.4622266,0.55617756,0.08459392,0.9510668,0.77726895,0.89960724,0.006835419,0.44851336,0.19807997,-0.092456356,0.1291389,-0.023531456,0.6742965,0.73090404,-0.29703116,0.1833115,-0.0283237,0.5972039,0.31181398,0.43730837,0.37420422,-0.15469788,0.6053665,0.47422898,0.8293547,0.83999705,0.5944656,0.10348269,0.26675227,0.13408068,-0.09243758,0.3277674,0.24249718,0.20934024,-0.25494576,0.3211986,0.977333,0.54519355,0.029505722,0.87097216,1.1043283,0.8911955,-0.07915324,0.9522965,0.0060276687,0.2444663,0.74751884,-0.4670646,0.6803644,0.4637605,0.4881771,0.51496434,-0.1705041,0.48591942,0.23370327,0.64211607,1.1693169,0.33965904,0.23648474,-0.07127892,0.24514009,0.37466875,0.79924065,0.53551656,0.43508065,0.9712217,-0.057087272,0.7540422,0.31615102,-0.24606815,0.36373848,0.45056245,0.24751638,-0.4616821,0.9339484,0.5308234,0.45482823,0.7110046,0.25691727,0.68461066,0.0025563077,-0.047882482,-0.05627983,-0.29734224,0.37749752,-0.24783576,0.12134068,0.7663223,0.5522112,0.23580003,0.6979417,-0.8312901,-0.43988317,-0.11371922,0.032990623,0.021607507,1.0670772,0.09993613,0.30784395,0.6728644,0.08989234,0.89590675
bottle_s004,-0.11929174,0.12937656,0.63146716,0.67735946,-0.50819534,0.0890218,0.4335654,0.044052634,0.1165653,0.9105527,1.1637318,0.18578032,0.34824923,0.9161334,-0.523947,-0.2485547,0.21584159,-0.065073684,0.5984354,-0.07553034,-0.07614522,-0.027729137,0.40987104,0.90580887,1.0700009,-0.46027422,0.5030715,0.8654647,0.057323072,1.0094092,0.8486237,1.46057,-0.4753296,1.1858207,0.02114043,0.025072806,-0.4237546,-0.058194418,0.7129818,0.8516401,-0.030223768,0.057640087,0.18108214,0.7107297,0.5069422,0.08431812,0.86106825,-0.06109589,0.31332588,-0.08363061,1.5099,1.0435627,0.025619935,-0.111637756,0.4444674,-0.07325948,0.03364495,-0.09313679,0.16539285,-0.046667285,0.43784964,-0.025628563,1.1891103,0.04999146,0.15214404,1.2521342,1.0306456,0.8900808,-0.09788714,1.0064628,0.27665502,-0.20754495,1.155767,-0.18308747,0.4095576,0.6646844,0.17907771,0.15917543,-0.11873136,0.023639116,0.13583009,0.69802785,1.2391282,0.07890442,0.90752274,-0.46738973,0.25407434,0.19437274,0.8070421,0.43894407,0.85140204,0.9152762,0.040570527,0.6051227,0.510616,-0.23170367,-0.13611294,0.12878034,1.0083501,-0.40259787,0.7467811,0.3549192,0.84170115,0.7277491,0.618647,0.44090852,-0.2956321,-0.16147292,0.02736303,-0.3899235,0.37016156,-0.07046937,0.25265542,0.53070974,0.66921324,0.22319019,0.6980645,-0.43048218,-0.614285,0.07009074,0.39148033,0.54155415,1.2523994,0.06952952,0.37188184,0.07430597,-0.0027663112,1.2843153
bottle_s005,0.5586663,-0.096061625,0.35851023,0.30408296,-0.63649935,0.17626226,0.07907674,-0.48380575,0.30589056,0.6819429,0.49770766,0.2874779,0.28514943,0.30245143,0.35026574,-0.2948597,0.04839013,-0.18453297,0.51282173,0.3227922,-0.096354246,0.007234549,0.42073756,0.7176488,0.75219667,-0.103928804,0.67671573,0.35967737,0.11826657,0.9994019,0.8310094,0.6664609,-0.18758802,0.50900304,0.36974287,0.09226364,-0.18110603,-0.015028607,0.9610596,0.88934577,0.37468392,-0.03583058,0.179371,0.750466,0.4465904,0.06568381,0.35373962,0.06156734,0.32033592,0.10534128,0.5661933,0.28757042,0.32409498,0.311878,0.016210329,0.44978803,-0.21453641,0.23041889,0.13310711,0.015388476,0.20813389,0.37105533,0.40710455,0.4839901,0.25506026,0.8696109,0.4428932,0.7621022,-0.019335154,1.0490233,0.22308788,0.3362182,0.93641305,-0.26883873,0.29967433,0.58216274,0.4064222,0.058798272,0.23372705,0.27446333,-0.0063655153,0.23023085,0.69156516,0.20404899,0.60675144,0.45707437,0.14939532,-0.028708434,0.44027346,0.31988063,0.29280055,0.85013974,0.38591856,0.5904831,0.26761413,0.15229131,0.10963732,0.07054041,0.37707692,-0.14400701,0.5375268,0.3541904,0.35551187,0.4136758,0.31187743,0.457561,0.31247923,0.031351946,0.38870367,-0.00093691796,0.21099712,-0.21205184,-0.102286294,0.8282939,0.6311197,0.3378466,0.5669724,-0.55097014,0.24790704,0.2181758,-0.08460024,0.10382064,0.5064892,-0.144839,0.6493522,0.37230918,0.06511903,0.64196634
bottle_s101,0.51920635,-0.17151368,0.5190891,0.24187636,-0.6633317,-0.0585705,0.044052467,-0.42713958,0.33516207,0.79799265,0.5048842,0.34631142,0.25599504,0.14350542,0.26036787,-0.11170911,0.043923978,-0.030022971,0.35345504,0.4033405,-0.2600596,0.07046731,0.30981326,0.76328486,0.5679946,0.059750713,0.62530565,0.28096837,0.062374745,1.2158368,0.87077594,0.6905197,-0.14728604,0.48607755,0.4104549,-0.11375273,-0.27062255,-0.016215835,0.82948554,0.7188677,0.4170146,0.00094023347,0.1793849,0.68175197,0.406647,-0.2010651,0.4626581,0.20847876,0.30863735,0.009629842,0.4382678,0.16889986,0.25055304,0.34139425,-0.056734137,0.4904294,-0.10900226,0.11661308,0.13013461,-0.083094455,0.30599302,0.2118679,0.35914415,0.54631835,0.19249234,0.6024442,0.4306869,0.9053714,0.02783563,0.9427139,0.1045938,0.2033346,0.80219096,-0.28413886,0.11885919,0.8663976,0.49195012,0.014292298,0.22382686,0.095305815,0.013157276,-0.034039956,0.3633518,-0.042128183,0.61474305,0.50355005,-0.0596335,0.07391072,0.29236376,0.13113937,0.29184914,0.6763617,0.35097414,0.33139417,0.2301733,0.31153557,-0.049547147,-0.027547725,0.28652787,0.03172305,0.49081126,0.4017247,0.2252037,0.29591477,0.12306954,0.25445512,0.24800342,-0.083294705,0.5370883,0.19494551,-0.07102594,-0.16676575,-0.08695565,0.8361746,0.41298592,-0.03325252,0.6531684,-0.38479424,0.18787685,0.32770824,0.029284492,0.14411177,0.20390363,-0.2569287,0.7443976,0.04866024,0.09217591,0.39726073
bottle_s102,0.29241514,-0.2077198,0.4990728,0.5531622,-0.39944,0.22485149,-0.29444796,0.0105513185,0.46918732,0.4646717,0.4936692,0.25232688,0.1408301,0.5799306,-0.04222466,0.0622574,0.10178719,0.0168651,0.43109906,0.24912322,-0.098446816,0.08501837,0.12301756,0.668182,0.6793155,0.21430364,0.4869908,0.4709583,0.08460455,1.0713187,1.0307477,0.9752076,0.21220852,0.8872226,0.12835914,-0.13244393,-0.11542751,0.19780396,0.9463378,0.84387577,-0.13622153,0.047987502,-0.01050505,0.41606385,0.3791536,0.009201638,0.5902487,0.22671506,0.47317237,0.028927376,0.49371374,0.66136885,0.16746834,0.11140014,0.04158985,0.41960272,0.13639438,-0.074999765,0.22151037,0.17209598,0.40586513,0.05580185,0.46839026,0.13045354,0.18307456,1.084681,0.42893228,0.86903006,-0.3185361,1.1278907,0.22082627,0.10099853,0.6174332,-0.20209564,-0.024218556,0.588094,0.13775402,-0.037744794,0.018771954,0.05146734,-0.044291724,0.38701025,0.6393089,-0.17756733,0.5518531,0.2501954,-0.17083938,-0.0973075,0.66022295,0.02204795,0.48944443,0.2832542,0.42523664,0.3740408,0.5551293,-0.13738245,0.6738462,0.15962249,0.09009142,-0.09648514,0.45579526,0.14451286,0.64541626,0.57683736,0.3622208,-0.10246893,0.1822472,-0.17685148,0.50346094,0.24187478,-0.09472077,0.3474579,0.15612432,0.27786678,0.18407744,0.04820481,0.54420173,-0.4117442,0.1586155,-0.20849097,0.20064603,0.13825099,0.5961141,-0.22444871,0.20170538,0.20835395,0.25692764,0.6817696
bottle_s103,0.058600493,-0.030141912,0.6125895,0.4628335,-0.322428,0.123272516,-0.24202012,-0.1625502,0.38159043,0.7525058,0.7966951,0.23025993,0.21340235,0.44429412,-0.14303505,0.13874078,-0.14486454,0.25116435,0.45831564,0.440431,0.001607608,-0.04235806,0.11339081,0.62043405,0.78174067,0.2692074,0.5390629,0.41125894,0.056513976,1.2065127,1.0455819,0.7870852,0.12448951,0.81148607,0.35085866,0.19364026,-0.40081254,0.25818694,0.8013233,0.96949613,0.15596017,0.0042404793,-0.36458674,0.57495993,0.07332739,0.13119382,0.23687306,0.33091533,0.43220964,0.10344765,0.8351169,0.42594534,-0.035295457,0.33086455,0.146788,0.5437022,0.2206099,-0.2346167,0.20321284,-0.11940009,0.3057636,0.072059885,0.34189853,0.32439575,0.12903973,0.7240884,0.3831437,0.661687,-0.15281048,1.3002455,0.26826233,0.19095966,0.7812113,-0.40079668,0.17968215,0.74325204,0.32171947,-0.082738906,0.09032457,0.26647443,0.026683781,0.46245363,0.4267785,0.038121883,0.53625876,0.19418943,-0.029069437,0.15048501,0.61328816,-0.08398285,0.37953094,0.5321315,0.3097694,0.08301094,0.25907212,0.00056070834,0.47349322,-0.0039314404,0.27065086,0.0908658,0.31756604,0.07280174,0.24980515,0.5785475,0.23767306,0.026260823,0.30408084,-0.19657102,0.49663672,0.30211115,-0.041181993,0.14268547,0.13732395,0.75430447,0.1871107,-0.11894905,0.38966665,-0.14754939,0.32935655,-0.102416284,-0.00565017,0.2572179,0.36680633,-0.09077971,0.38912368,0.14713588,0.18085934,1.008062
bottle_s104,0.42164344,-0.14576101,0.11786008,0.07763527,0.13284273,0.12273746,-0.033071212,0.14435664,0.091533005,0.18109365,0.6667844,0.15176953,0.3719288,0.41892046,-0.21937327,-0.093793176,-0.17579202,0.27905315,0.38280395,0.48834795,0.4758562,-0.24393241,-0.22802219,0.89276147,0.52751434,0.20802476,0.5679432,0.13739651,0.18697265,0.7938029,0.48294216,0.5952716,-0.060202617,0.47865456,0.4518948,-0.29938555,-0.2827246,-0.13822217,0.50306934,0.50522447,-0.21752904,0.15166038,0.19280075,0.5319166,0.0126934955,0.50784427,0.2904665,0.15424696,-0.15675813,-0.1995923,0.039921418,0.45262337,0.32629287,0.9207212,0.40827546,0.90013963,0.5422056,0.08036419,0.55859184,0.2836241,0.3460976,-0.18959822,0.22631069,0.46801844,0.018844929,0.42380416,0.4419298,1.1129775,0.07534164,0.9894899,0.1944447,0.6423039,0.44293278,-0.40722328,0.1461142,1.0973941,0.093841776,0.004215922,-0.10589428,0.012006617,-0.71784526,0.16239968,0.8078296,0.13033858,0.6778768,0.16695148,0.27702433,-0.13406798,0.2503598,-0.06824846,0.4389572,0.5793514,0.16387093,0.48504415,0.40452,-0.059657708,0.34004644,0.070330374,0.19385877,0.18973683,-0.02224529,0.015187211,0.1347186,0.2426803,0.10527873,-0.10053653,0.30896,0.28853214,0.479866,0.38555694,-0.23289408,0.25369635,-0.12753998,0.84585786,-0.04011005,0.29954016,0.72226113,0.11367716,0.37518832,-0.4987894,0.30912238,0.25562903,0.5756888,0.09291637,0.43747145,0.052850634,0.1719656,0.9900888
bottle_s105,0.26556233,-0.00071636215,0.46064478,0.66740394,-0.70717293,0.08288427,-0.050992735,-0.1721229,0.2343636,0.3900639,0.81071424,0.08600378,0.48164496,0.259098,0.22597243,-0.18163124,0.25585318,0.36011147,0.5654325,0.3482136,-0.038404256,0.07373618,0.01647776,1.3248078,0.921197,-0.23557495,0.8485707,0.21081275,0.062431257,1.1624383,0.7449754,0.8558758,0.24376442,0.71128106,0.5853599,0.061197855,0.097002655,-0.061968964,0.9360168,0.7813655,0.12111041,-0.05302638,0.017529372,0.40213698,0.20256193,0.02100455,0.4897723,0.4576619,0.08032267,0.022299215,0.7320594,0.47907466,0.16734487,0.5738947,0.35644364,0.49007183,-0.08634769,-0.01655143,0.17839974,-0.11122189,0.4227474,0.26241702,0.45824116,0.58732104,0.29346302,0.8067838,0.5654989,0.9997089,0.04244847,1.2911373,0.015137363,0.15183872,0.5919011,0.006360974,0.0025063902,0.24571756,0.17812908,-0.13688794,0.06837877,0.29458922,0.104585186,0.27963057,0.48267892,0.063296214,0.6825365,0.42341313,-0.06548039,-0.0016947617,0.2471016,0.02192835,0.4293207,0.62308633,0.28430778,0.48058423,0.672147,0.117748104,0.50809574,0.013318989,0.053182397,-0.13224937,-0.0070456862,0.19842428,0.2581761,0.4368614,0.119014055,0.12964338,0.27091882,-0.20505083,0.4925067,-0.07271123,0.419744,0.19308013,0.03314767,0.76645106,0.13976085,0.17772132,0.5061486,-0.38337255,0.18789487,0.10702111,0.23558426,0.2627777,0.27875704,-0.07657048,0.6228843,0.09587097,0.202492,0.85045046
bottle_s106,0.26052085,-0.17171091,0.07547136,0.37284362,-0.4638435,0.34868097,-0.14389426,-0.015511332,0.24723865,0.57700104,0.6204156,0.33201793,0.458987,0.67924386,0.24441741,0.047041953,-0.1305625,0.26030844,0.32787538,0.63512117,-0.23982695,-0.09287809,0.10465351,0.94584596,0.8947931,0.21102075,0.33867535,0.18929935,-0.041646287,1.0210265,0.9440775,0.79479814,0.33507347,0.9725062,0.49753684,0.0021730661,-0.1337452,-0.04722764,0.9214957,0.50099415,-0.43493897,-0.13324225,-0.289151,0.55986816,0.53409374,-0.16635576,0.6449354,0.3227166,0.6780892,0.07256904,0.6505386,0.6346805,0.13861267,0.102239385,0.061677277,0.53708225,-0.25218454,0.020593323,0.5185382,-0.35227302,0.499848,-0.09159322,0.089216754,0.38463026,0.09596581,0.99642277,0.19125448,0.8385245,-0.27200583,1.3911328,0.338704,0.15432057,0.4807192,-0.27761242,-0.18978368,0.52701634,-0.06901689,0.051732358,0.28802007,-0.21688184,-0.5283137,0.4015748,0.74454546,0.3994332,0.70781815,0.43072498,-0.15381327,-0.20202214,0.45904166,0.69646335,0.43772677,0.37692484,0.52670366,0.6089213,0.4555521,-0.10193925,0.5274462,0.056973588,-0.030346729,-0.2325615,0.58723956,0.035267413,0.6104676,0.3109238,0.65487856,-0.024525754,0.25243637,-0.2896695,0.9979514,-0.1918052,-0.15054826,0.3228203,0.22974966,0.80793554,0.32187355,0.0437875,0.6122617,-0.32910103,0.6750826,-0.577521,0.06400447,0.1210175,0.4036063,-0.039080493,0.5128671,-0.069573745,-0.31138128,1.3387371
bottle_s107,0.13265501,-0.017583273,0.3565536,0.6940584,-0.49143916,0.1665868,0.0385034,-0.060620703,0.18723363,0.3479572,0.7366611,0.15510182,0.36583254,0.1831151,0.031641603,-0.023064785,0.012588721,0.31326345,0.23608807,0.33261797,-0.005284544,0.017445318,0.01507467,1.1886677,0.8054776,0.119539104,0.52463275,0.19718379,0.19784065,1.0960153,0.74098665,0.66528773,0.25085503,0.5622853,0.42653123,0.1709677,0.09730877,0.08470023,0.73610586,0.94901484,0.2044055,-0.06239802,0.18073425,0.14840114,-0.09934794,0.10879919,0.04330404,0.53917825,0.36057848,0.344726,0.4806614,0.35057253,0.19505511,0.53985953,0.32913467,0.56101614,0.07477163,0.11741706,0.39613906,-0.0072967857,0.4592888,0.32852507,0.31016606,0.39572242,0.28029335,0.8196404,0.4080668,0.8737002,-0.019072302,1.127896,-0.29991445,0.24359187,0.21564277,-0.08594436,0.16519563,0.3059419,0.32089743,-0.035661336,0.19293694,0.32361624,0.1977702,0.30214062,0.39157954,0.036305152,0.54297805,0.46367022,-0.154864,0.10036472,0.29463744,0.030166823,0.22408818,0.16448712,0.45672888,0.29273444,0.7056878,0.07702367,0.5880418,-0.03774321,-0.0022688806,0.16555178,0.1516192,0.073581584,0.050374288,0.54088026,0.0711563,0.370047,0.28731725,-0.19902979,0.52583575,0.056443304,0.1539165,0.26753184,0.021438733,0.7366375,0.058321834,0.12121274,0.39890885,-0.2919243,0.15829201,0.053702272,-0.008633696,0.32351404,0.26824525,-0.08563417,0.5075654,0.4486791,0.3994006,0.8666501
bottle_s108,0.079450354,-0.27386335,-0.000981953,0.24585664,0.15742302,-0.11055279,-0.14216557,-0.5134565,0.2732234,0.5748759,0.012294844,0.35691538,-0.07772443,0.15965083,0.35180563,0.41344076,0.2706715,-0.12077043,0.30228284,0.19848765,0.051554188,0.16676356,0.23744431,0.5284319,0.048335496,0.4537685,0.42698717,-0.2424995,0.063944384,0.8090943,0.7544718,0.106079035,0.26259008,0.30157864,0.31666183,0.13078414,0.14849631,0.10831605,0.64698905,0.45327535,0.36935413,0.26942524,-0.1450968,0.74709976,0.34175187,0.0078028813,-0.30735105,0.3360695,0.10921561,0.12510493,-0.11535884,0.06628462,0.5293489,0.52065104,0.6871711,0.6050112,-0.07258942,0.10653936,0.110469356,-0.26126942,0.12314811,0.047358524,-0.07385309,0.44680554,0.39254114,0.023784772,1.2493692e-05,0.7275048,0.07811117,0.43218234,-0.37330106,0.3451968,0.36205593,-0.10118641,0.0454727,0.92098194,0.36846614,-0.31007797,0.14466725,0.06471495,-0.06691174,0.22488372,-0.17317475,0.07453415,0.04584354,0.87340516,-0.2023415,-0.20593451,0.6417527,-0.088393636,0.3867359,0.08209681,0.11155687,-0.1270456,0.23697843,-0.09500573,0.16721715,0.17006366,-0.12008244,-0.16308647,0.019962272,0.38650107,-0.078629,0.032887593,-0.16171396,0.23094696,0.5357931,-0.03304672,0.634299,0.6053573,-0.4208092,-0.14300069,0.19535525,0.66145974,0.01577771,0.0857972,-0.02480419,0.14018741,0.40962574,0.015253816,-0.20230748,-0.26419735,0.29263747,0.035311084,0.7378722,0.045024842,0.50387293,-0.16733573
bottle_s109,0.25496128,-0.06840361,0.25299507,0.11498979,-0.31788763,-0.11912843,0.14002757,-0.51561487,0.2030454,0.81328344,0.2650022,0.6239505,0.02083228,-0.018006591,0.119109824,0.19179124,0.015699703,-0.15897033,0.29696652,0.4911335,-0.15037629,-0.0940467,0.14089075,0.82045263,0.5199167,0.30418533,0.7541923,0.20324779,0.16388285,0.791693,1.0654455,0.04363942,0.02633715,0.4893082,0.2845368,0.25797522,-0.07654126,0.11640577,0.6834435,0.80959237,0.6720294,-0.0057011787,-0.0077313017,1.0571948,0.24938399,0.08481458,0.09794938,0.28337434,0.15521419,0.32663924,0.34286577,0.18755807,0.19231498,0.20706332,-0.082824096,0.44373876,0.06748885,0.119275115,0.24398458,0.21108879,0.30281463,-0.025606362,0.31041506,0.348104,0.07353402,0.28268588,0.27294862,0.65632224,-0.011201765,0.85046124,-0.34986758,0.33826965,0.72411186,-0.06939981,0.188517,0.74459743,0.44935888,0.023670062,0.48076937,0.10844831,0.07442909,0.12402177,-0.08410193,-0.04044167,0.024639297,0.62940603,0.027952813,0.28405625,0.29577622,0.15250772,0.25005612,0.24761686,0.3537132,0.20683607,0.05825258,0.18953976,-0.23573305,-0.089736596,-0.12497324,-0.09691968,0.2223006,0.20841429,0.094867736,0.095053464,0.050687917,0.42786545,0.47134683,0.008832646,0.48947677,0.3117953,-0.075086206,-0.512833,0.44764966,0.6760836,0.07565467,0.18863362,0.43993092,-0.09889683,0.36009482,0.18483862,-0.018667914,0.13722157,0.28147477,0.07895772,0.7675172,0.26252228,0.1281278,0.52615106
bottle_s110,0.26784307,-0.33623096,-0.17463978,0.30130303,-0.7480227,-0.16744056,0.19977686,0.13185757,0.768284,0.3323839,0.51665986,0.23939268,0.39673677,-0.026237722,0.074047044,0.38016945,-0.0048303567,0.30330837,0.24821262,0.425515,0.26742026,0.24449752,0.04945276,0.46720365,0.010576636,0.42727137,0.2022336,0.25853705,0.07829702,1.2314106,0.76690966,0.6674347,0.31922504,-0.24120623,0.7416307,0.47996178,0.18540537,0.10800441,0.43834922,0.6177808,-0.33366728,0.38777754,-0.055219993,0.26245844,0.25484708,0.82535076,0.2390495,1.1008371,0.06703992,0.036779262,0.5350976,0.73903275,0.24576011,0.7422794,0.36188978,1.1429931,-0.21649669,-0.06859937,0.5367451,0.35566497,0.06976406,0.15580711,0.4967271,0.40728578,0.18237165,0.09392622,0.37753978,1.0532357,0.04798745,0.9174979,0.050378256,0.6279198,-0.3746873,-0.06942845,-0.14182003,0.85323185,0.12430221,0.4648357,0.17702237,0.10966663,0.20239565,0.30315608,0.16953883,0.05547781,0.105333924,0.18653482,-0.3884108,0.3995426,0.3124086,0.22959162,0.42681867,0.039462514,0.16665836,0.4131146,0.4631935,-0.024816148,0.7474543,0.57973015,-0.32793063,0.015376778,-0.09329775,0.1923853,0.16484812,0.20792504,-0.08835505,-0.15017432,0.46500808,-0.14960338,0.28580913,-0.22124939,0.39105678,0.20554921,-0.20568967,0.43208337,-0.03888855,0.3532582,-0.20153454,0.27938196,0.13077933,-0.20807451,0.012094121,-0.044465385,0.40388164,-0.1608829,0.06499653,0.48699516,0.010596149,0.28411677
bottle_s111,0.66736895,0.16097054,0.40941405,-0.11484122,-0.099508576,0.3376873,0.21509552,-0.4892357,0.32139403,0.7237576,0.2271416,0.5371908,-0.055234157,0.028956492,0.18448126,-0.17933884,-0.10553241,-0.32860535,0.088071875,0.575957,-0.052395787,-0.20788115,0.11885695,0.59460515,0.0543108,0.41794014,0.62019056,0.2829173,-0.022168402,0.84658,0.7231253,0.36584914,0.22606395,0.19537246,0.35792166,0.055380475,-0.08957793,0.019606296,0.43985072,0.71444434,0.43168128,-0.07673204,0.23841222,1.1483947,0.3042196,0.3148978,0.016414301,0.2773067,0.42528424,0.08898908,0.21199876,-0.088309646,0.42607427,0.16811866,-0.06642522,0.5761008,0.005959086,0.6729377,0.5255697,0.14491841,0.038270786,0.16451548,0.42636213,0.30565107,0.20511904,0.37844545,0.22291404,0.6552581,-0.24329674,0.6187558,-0.37684268,0.52703565,0.85512584,-0.643172,0.5748437,0.91478056,0.212192,0.2719966,0.4431533,0.13995203,0.09198792,0.021755533,0.11008389,0.280464,-0.21815318,0.74627227,0.37337404,0.20489097,0.30489665,0.3481701,-0.0015228484,0.32758895,0.45048755,0.31392443,-0.018299239,0.31068015,-0.004215151,0.07046852,-0.22782455,-0.101513945,0.39233014,0.67372394,0.07198245,0.15028438,-0.031801507,0.59307766,0.610127,0.16755344,0.3709721,0.66393346,-0.37551895,-0.54441893,0.27096075,0.89965963,0.1570141,-0.0775778,0.36308393,-0.3354243,0.59396183,0.011385461,-0.21776892,0.005310118,0.39499453,-0.24077424,1.1064382,0.46442544,0.020750314,0.1932583
bottle_s112,0.369516,-0.18573731,0.39998916,0.7426966,-0.49856138,0.00081005855,-0.20779577,-0.077923864,0.59116,0.6501348,1.0202014,-0.012429835,0.93354034,0.43675172,0.08585392,0.034158483,0.3223278,0.06251075,0.53993994,0.20636205,0.017243363,0.3399101,0.38214323,0.943265,1.1626314,0.22465624,0.51126194,0.16885734,0.42771554,1.13472,0.5461512,0.8436035,0.069670886,0.7896662,0.36975616,0.025244536,-0.033146482,-0.106664166,1.1901789,0.46555388,-0.11697638,-0.25310475,0.10307133,0.54402775,0.5269284,0.2868281,0.613561,0.3011414,0.09237054,0.025775587,0.8846238,0.41635948,0.3234322,0.5217747,0.4837055,0.630277,0.14092052,-0.039256662,-0.06171842,0.16459188,0.495746,0.34349018,0.7620173,0.5008521,0.22410789,1.0814416,0.34680903,1.2069031,0.15942393,0.8507543,0.21315208,-0.11592874,0.73343194,-0.003991278,0.19607587,0.63637847,0.31243435,0.30342075,0.235089,0.23668413,0.42906743,0.5036012,1.0087372,-0.047899783,0.7125911,0.18262443,-0.35340047,0.122486174,0.5893184,0.61530346,0.46903485,0.57356185,0.08722849,0.60574013,0.59398276,0.14149839,0.43039253,0.13344955,0.6019467,0.1574462,0.32058942,0.077279456,0.42432457,0.58184546,0.52857983,0.2907178,-0.091897085,0.1966058,0.4148075,-0.0075998157,0.6165727,-0.05676797,-0.073783055,0.66433245,0.62788975,0.22452784,0.7025429,-0.40332535,0.024322614,0.13125615,0.2548411,0.2956764,0.5251749,-0.11527988,0.20853819,0.4529025,0.14717849,0.81238455
bottle_s114,0.2949356,-0.18931642,0.39606357,0.19436076,-0.38910294,0.38876247,-0.016671829,-0.19119486,0.28398415,0.5034218,0.5936281,0.2744347,0.21000153,0.28701177,0.3043632,0.21813247,-0.034399394,0.08511429,0.3995262,0.19827503,-0.1406119,0.029032081,0.2984025,0.59404415,0.2300846,0.2340974,0.52608037,0.13191293,0.038018826,0.954122,0.7012583,0.47230273,-0.021251772,0.48538432,0.44290373,-0.0989176,-0.2648155,0.17127545,0.46613085,0.45287898,0.4514231,-0.02007418,-0.06541231,0.8951751,0.5157276,0.12240772,0.23358145,0.24954422,0.411542,-0.06733683,0.44637224,0.24013369,0.25482136,0.14110756,0.14742106,0.32845947,-0.20314996,0.12818798,0.03543537,0.02193711,0.59565204,0.15806074,0.24507305,0.39244613,0.14438982,0.48013687,0.16937438,0.8470201,-0.1599488,0.77194107,-0.024079435,0.06537821,0.56192446,-0.22076362,0.2448985,0.5724821,0.35173675,-0.101882964,-0.050846603,0.12700671,0.12438737,-0.03773501,0.16946416,0.13750283,0.21376228,0.52998525,-0.20057884,0.085414074,0.19380538,0.15490049,0.13663338,0.24163237,0.42656952,0.18891504,0.14213215,0.25276813,0.19561787,0.1702875,0.1576333,-0.13027866,0.23057936,0.4359414,0.358739,0.5143088,0.023638537,0.45863438,0.29326653,-0.16679275,0.49221095,0.31170696,-0.1281032,0.14404678,0.10799357,0.48884135,0.19308463,-0.05279112,0.41236717,-0.1149351,0.31906456,-0.023616992,-0.044696704,0.17704533,0.34073186,-0.108826354,0.77313447,0.099125355,0.021118857,0.32052693
bottle_s115,-0.08722976,0.039411344,0.27549735,0.5644329,-0.4607579,0.029574454,-0.21414049,0.014206864,0.49863434,0.45819777,0.63043594,0.16450158,0.13623664,0.3385902,-0.28594387,0.029717099,0.055780027,0.07480274,0.31064495,0.1377249,0.10688847,0.13908602,0.19694471,0.56170464,0.85718423,0.014849566,0.50128895,0.53346366,0.10653773,1.3841927,0.63680327,1.0543405,0.41591495,0.55367327,0.31329334,0.048622906,-0.2217007,0.0020817332,0.6328326,0.83998036,-0.005872246,0.15009099,0.06909837,0.42070305,0.11406468,0.23062345,0.57478875,0.23906364,0.5635487,0.024741065,0.53353846,0.6441775,0.15912299,0.3325609,-0.029694043,0.58030516,0.024705198,0.009081826,0.16298619,-0.01722431,0.42104298,0.082108974,0.42585766,0.27357548,0.28955102,0.676834,0.3922399,0.8861929,-0.17631082,1.1023213,-0.051746663,0.29149976,0.23518418,-0.19886187,0.1760269,0.46340597,0.39863375,-0.09438115,-0.039764747,0.10924204,0.15737519,0.3764809,0.5566878,-0.23287375,0.5295665,-0.027462052,-0.11064275,0.13866782,0.6429768,0.23533955,0.4747088,0.43511248,0.18338086,0.330728,0.5711883,-0.15294558,0.44611943,-0.037568487,0.058163825,0.06191615,0.092462525,0.35231882,0.37335798,0.38326,-0.017449168,-0.14398,0.24001949,-0.24343964,0.23947398,0.10125887,-0.11169384,0.14563346,-0.046020307,0.4906491,0.33452493,-0.09757502,0.22895446,-0.070509836,0.3139305,-0.16777784,0.09109672,0.26145476,0.6076277,-0.10609402,0.2624363,0.52705353,0.29744142,0.52217335
bottle_s116,0.43086106,-0.091687314,0.36026138,0.26371464,0.09329166,0.30684462,-0.26700956,-0.0074536465,0.3667092,0.5824026,0.62271583,0.17541248,0.006457117,0.5727589,-0.015283437,0.09464639,0.097158484,0.050735623,0.4329976,0.3075666,0.06434426,-0.044578902,0.02256922,0.6976305,0.5253495,0.031024983,0.90582716,0.29063353,-0.21087302,0.93366903,0.7418106,0.88238674,0.036463723,0.87144727,0.23306653,-0.30756655,-0.26569185,0.037073236,0.502018,1.0969644,-0.04471389,0.05617461,0.15312833,0.57726055,0.15512863,0.40718192,0.5722467,0.2852516,-0.10693591,-0.044427507,0.61102587,0.51180476,0.614882,0.110878885,0.18422832,0.48814857,0.37559548,0.36110243,0.44373095,0.23387618,0.28137794,-0.1891157,0.36915937,0.091373965,0.032233045,0.8661598,0.39050725,0.8138616,-0.11194618,1.0453899,0.1630592,0.22937405,0.55549043,-0.26896572,0.29862761,0.60020924,0.23251745,0.029703256,-0.2258456,0.17957567,-0.3332518,0.4331915,0.63761854,0.039981466,0.29069772,0.33485386,0.26548064,-0.01771234,0.6728244,-0.049044766,0.22690491,0.7147463,0.62877595,0.67508334,0.13602337,-0.109018944,0.22064872,0.21598041,0.2563393,0.19999945,0.28925225,0.5109112,0.3321584,0.47081912,0.16454543,-0.16093534,0.187063,0.06330888,0.2533212,0.648523,-0.13308355,-0.0004573036,0.18416701,0.4495374,0.36516076,0.18454319,0.6234882,-0.3252169,0.068034664,-0.13482726,0.24322692,0.061311394,0.47277534,0.07586238,0.34487846,0.35361356,0.27538186,0.86381704
bottle_s117,0.40900195,-0.06353515,0.41618666,-0.040510077,-0.38856152,0.12525848,-0.10816342,-0.24408728,0.23767786,0.5034193,0.5757479,0.07486123,0.17657517,0.04739435,0.3347342,0.2622233,-0.10974237,-0.001972247,0.11325936,0.794641,-0.14240591,-0.08442988,0.0059491396,0.81023794,0.19062963,0.43628722,0.6818956,-0.20613371,-0.0032480527,1.1662905,0.79138595,0.23640126,0.28579304,0.27027348,0.32113698,-0.09205374,-0.017014507,-0.009140637,0.5629716,0.50737303,0.39201385,0.007259112,-0.013328482,0.84093326,0.22299181,-0.056641854,0.084765635,0.40943483,0.22612152,0.10913041,0.30128548,0.038962293,0.31326395,0.3961215,0.078724615,0.47295296,-0.13839673,0.35566735,0.4376257,-0.106943585,0.29954275,-0.007804717,0.05038926,0.51455915,0.0040177703,0.24177308,0.13133258,0.7540128,-0.0018103421,0.8132978,-0.2642772,0.6274041,0.21898217,-0.30081666,0.15858243,0.71334976,0.24219236,-0.14892505,0.39133453,0.08221401,-0.02921212,-0.15950638,-0.034630846,-0.13600028,0.25978863,0.66856223,0.012434788,-0.004938575,0.19367969,0.019685153,-0.017766207,0.19708511,0.41114223,-0.11578171,0.25281593,0.21138579,0.23105347,-0.08220747,-0.031302422,-0.08359072,0.2154662,0.4502424,-0.11213888,0.2408895,0.013782708,0.10072599,0.54446554,-0.14922154,0.47863963,0.43224704,-0.19419007,-0.025859479,0.066333935,0.7031552,0.030475039,-0.20175815,0.2653692,-0.18266611,0.46302018,0.34572676,-0.15750127,0.05630007,0.042494297,-0.21218543,0.84082186,-0.035443015,0.17908257,0.35870507
bottle_s118,0.32482195,-0.10307657,0.3981478,0.33945456,-0.5298962,0.24246779,-0.19671921,-0.4963072,0.12290725,0.4629616,0.5964028,0.45844433,0.3556391,0.36341053,0.11349793,0.25779414,0.056383975,0.28271818,0.14078487,0.39681983,-0.18796368,-0.09071017,-0.01117409,0.7205615,0.6391641,0.2872932,0.62196285,0.47147003,0.30910355,0.8588198,0.7548345,0.5336709,0.24585909,0.70505667,0.34110892,0.02550257,0.008490557,0.15041539,0.42408654,0.49759203,-0.2893296,0.17335851,-0.08518244,0.54258305,0.41847003,-0.0951766,0.3905533,0.32125336,0.8396803,0.10811646,0.5083185,0.59313387,0.0848172,0.4026356,0.18083684,0.022848245,0.007121723,-0.08708056,0.32629782,-0.26574045,0.2743604,0.09025966,0.06299634,0.36772597,0.1992118,0.59383166,0.19572277,0.7832599,-0.10094306,0.96726525,-0.25269607,0.13470611,0.30702376,-0.17681931,0.03624656,0.39781198,0.34676427,0.094509006,0.06263999,0.052369837,-0.24529259,0.2653885,0.3489691,0.016505439,0.5337645,0.2945765,-0.23533817,0.105339855,0.280925,0.2992814,0.082187414,0.2793334,0.16341764,0.34072882,0.20193133,-0.16858995,0.5034884,0.21741354,-0.0044055693,-0.10179634,0.1962078,0.08873156,0.00083405524,0.46917,0.40312472,0.35948318,0.061354935,-0.2621651,0.7262107,-0.18746297,-0.07666409,0.38736442,0.21062005,0.449009,0.29207367,-0.038378388,0.6910238,-0.46785688,0.058530513,-0.17205858,0.026083115,0.10761147,0.17671971,-0.02553716,0.4431792,0.34858602,0.40565187,0.79363126
bottle_s119,0.66497785,-0.04427468,0.4757473,-0.050670836,-0.63681823,0.17839682,0.22404796,-0.5146808,0.41463223,0.724937,0.2827506,0.30560523,0.22803313,0.08261124,0.62844396,-0.16842315,0.08080211,-0.049989447,0.24070837,0.57320416,-0.084205836,0.089802474,0.30498564,0.63829184,0.2998434,0.21549751,0.72620517,0.2354403,0.111986294,1.0814037,0.67812407,0.43807033,-0.024846267,0.42409799,0.55845666,-0.18426801,-0.09224059,-0.05165414,0.7273725,0.5211325,0.17164043,-0.08548722,0.11150721,0.9917578,0.6030885,0.04127241,0.17157567,0.26665106,0.086946495,0.2609144,0.33656287,0.064254865,0.18421267,0.3053185,-0.26094487,0.59636724,-0.32933268,0.16579649,0.39089176,0.120425,-0.03204776,0.27578312,0.38701546,0.6958154,0.29516008,0.5563738,0.29616523,0.6838813,-0.07401635,0.80285,-0.18040286,0.41789886,0.94827884,-0.21595366,0.14389652,0.9247271,0.42867345,0.13125119,0.36325297,0.2716873,0.08920045,-0.11104438,0.33847287,0.24297842,0.20517248,0.5428782,0.06242393,0.052434966,0.20184447,0.37664664,0.08602435,0.6080032,0.56526005,0.48015144,0.1713332,0.46567345,0.14110541,0.19081925,0.08231817,-0.11736896,0.3821085,0.24605486,0.12661937,0.21222752,0.0858175,0.46242645,0.5255133,0.14675406,0.52994615,0.061905358,-0.05064508,-0.1918031,0.087218255,0.7449338,0.29607487,0.41676027,0.4745613,-0.55213,0.58036107,0.12851384,-0.19778092,0.09709426,0.36224774,-0.16093063,0.96907246,0.61293083,-0.22329636,0.42938927
bottle_s120,0.39865977,-0.0011563674,0.323421,0.42706472,-0.545881,0.22615698,-0.26989096,-0.37036276,0.23125415,0.31244066,0.55093706,0.47771958,0.3259069,0.3587328,0.12838823,0.04387761,0.080055185,0.13567598,0.25145686,0.32631254,-0.24265862,-0.09831768,-0.072482444,0.9022491,0.68129915,0.34174776,0.5506698,0.2435431,0.2882602,0.80438143,0.7082621,0.616043,0.1523037,0.8469185,0.23112229,-0.11883175,-0.031532396,0.10289156,0.3967016,0.7151569,-0.33256155,0.1946357,0.06292847,0.41193116,0.27516675,0.19651404,0.5239764,0.32099771,0.68138456,0.056553453,0.4763466,0.3789259,0.12604278,0.42051232,0.26482686,0.1664513,0.025862325,0.011497531,0.4054655,-0.2573672,0.4158481,0.0046578515,0.19758734,0.31786233,0.1380417,0.69558203,0.18146046,0.89456993,-0.06732154,0.9357705,-0.16819786,0.15665999,0.306657,-0.22634849,-0.029402982,0.30119362,0.07090914,0.05364808,-0.031505,0.025615335,-0.30065173,0.13901573,0.4367776,0.13824353,0.5086747,0.1535944,-0.14876956,0.062085267,0.117088474,0.14776279,0.08309153,0.24518117,0.2289968,0.45259812,0.40996915,-0.12919226,0.6034937,0.24392815,0.10607606,-0.030364206,0.15348533,0.12498949,0.30218127,0.5007111,0.38308787,0.30867377,0.04118951,-0.1447164,0.6067851,-0.013992794,0.024946135,0.48187473,0.14026567,0.49599892,0.24619782,0.25830418,0.66179127,-0.4158247,0.051879257,-0.16071096,0.14460681,0.108087674,0.2302014,-0.055533834,0.21700576,0.21504393,0.34706023,0.91101027
bottle_s122,0.6638879,-0.23150763,0.2735218,-0.13758194,-0.31346443,-0.016860163,0.10866268,-0.42405605,0.5396267,0.7805037,0.28959188,0.46347025,0.048295986,-0.059634898,0.14163163,-0.11864913,-0.14425774,-0.5327244,0.1093983,0.5319229,-0.15154226,-0.21236825,0.1904977,0.50923216,0.053195592,0.33910364,0.55830294,0.19021879,0.05623695,1.0800564,0.7846959,0.22478673,-0.109684035,0.33417022,0.6314395,-0.059205372,-0.25773063,0.09943546,0.6496894,0.75668156,0.4571013,0.05266914,0.3997869,1.2239633,0.63118815,-0.15387738,0.055861026,0.20292465,0.33611763,-0.05077707,0.26275942,0.011557654,0.20207494,0.21801484,-0.09657917,0.45721632,-0.16488355,0.2238543,0.11267678,-0.038348667,0.06836933,0.17546871,0.19187474,0.2884171,0.14378098,0.38117462,0.10907923,0.4764505,-0.17967616,0.6894706,-0.17201737,0.36447775,1.0564903,-0.1965421,0.32124674,1.0674462,0.34576133,0.1200366,0.41719276,0.18437837,0.030582773,0.12389465,0.11482485,-0.024226613,-0.025229197,0.8576703,0.048757844,-0.079601035,0.45834196,0.2426599,0.2515193,0.32723707,0.44008893,0.14812672,0.19841217,0.3633015,-0.25854927,0.04668799,0.012677452,-0.094236195,0.37132013,0.42582452,-0.02441468,0.13587682,-0.18671906,0.3754203,0.48541436,0.15304312,0.4509235,0.64210075,-0.34636292,-0.3649751,0.21808374,0.69480497,0.27222306,0.08202219,0.3626214,-0.22973543,0.48956105,0.05260667,-0.015738785,-0.018875852,0.44479835,-0.17265116,1.0982716,0.5393642,0.04498946,0.023217317
bottle_s123,0.11556673,-0.16123933,0.43722618,0.37230018,-0.47006842,-0.04603036,0.019363951,-0.2588453,0.37009063,0.6539027,0.7348832,0.23817155,0.06432107,0.35148415,-0.087895624,0.22957605,0.14309558,0.05835233,0.3987462,0.24938047,-0.16288798,-0.20200978,0.038036585,0.6029019,0.48344415,0.18893808,0.5441607,0.29130545,0.1269384,1.0272127,0.7341817,0.529613,0.10826484,0.6183405,-0.018969294,-0.08638399,-0.29211867,-0.06650324,0.6644247,0.7340612,0.35677874,0.20767248,-0.08881332,0.69582975,0.46253836,0.107553616,0.32601222,0.16990028,0.47697103,-0.1088659,0.7126786,0.5775358,0.1818401,0.14512682,0.11805242,0.23873845,0.09123494,0.14238912,0.26207113,0.016042132,0.29632387,-0.08161102,0.1846053,0.16239664,0.22431126,0.4687053,0.29660913,0.9834353,-0.1152588,1.1102904,-0.155462,0.1372951,0.68760484,-0.13991593,0.14056784,0.6028892,0.42367184,-0.28118902,0.09031551,0.19705012,0.15662651,0.28088233,0.20594761,-0.35918307,0.37924236,0.33190247,-0.025990047,-0.05592323,0.57162356,-0.0709718,0.5314243,0.46660352,0.10216141,0.05347687,0.39366457,-0.044122174,0.027475707,-0.023878187,0.13025835,-0.223018,0.12591197,0.2561674,0.22627284,0.53969985,0.148323,0.065916695,0.22340637,-0.22589353,0.3924827,0.17184906,-0.34399554,0.14848316,0.050941255,0.5452858,0.27994382,-0.20946163,0.47787848,-0.20688768,0.07479308,0.08289981,0.11587915,0.39840174,0.48227724,0.09683062,0.6456275,0.17307927,0.47039184,0.5870137
bottle_s124,0.5802313,0.07506272,0.5885151,0.46427113,-0.43830693,-0.20354356,0.035267733,0.03198004,0.44528213,0.3305261,0.57800347,-0.14469239,0.37433302,0.32324195,0.17830214,-0.059466355,0.19069406,-0.17155835,0.27377254,0.3217458,0.0878399,0.080007575,-0.022753745,0.6583598,0.6747816,-0.29311103,0.85819376,0.14389764,0.20330453,0.9177723,0.45548615,0.69717354,0.15877874,0.86416084,0.29822215,-0.1605081,-0.032592587,-0.2577083,0.5552222,0.85984576,0.052369446,-0.016288206,0.23552074,0.29050618,0.4074859,0.36542878,0.4068851,0.34062827,0.4693767,-0.15297206,0.51023144,0.37242618,0.33518398,0.3640885,0.022977576,0.34766743,0.13511473,0.4204034,0.46893632,0.053677864,0.24418437,0.014072899,0.20941573,0.15917961,-0.022016011,0.80739516,0.14143674,0.9604494,-0.010126982,0.8786419,-0.0010039471,0.36126986,0.48428836,-0.22852184,0.011506189,0.6041666,0.10762915,-0.19139136,-0.1809002,0.19396836,-0.3315117,0.34984758,0.5695837,-0.24633561,0.5215,0.47210476,-0.23499535,-0.22332339,0.4779461,0.036262684,0.46405098,0.72019345,0.45241487,0.3529353,0.62220556,0.0890661,0.61269546,-0.042393446,0.21613379,-0.22955485,-0.06683744,0.20561008,0.34762636,0.12243703,0.15751277,-0.023405626,0.36416993,-0.021289958,0.6370542,0.2910793,-0.2233398,0.04562789,-0.060850505,0.57490504,0.091808096,0.16017827,0.44146362,-0.15218161,0.09221692,0.007056851,0.26028138,0.3285769,0.576602,-0.081303306,0.6391443,0.30995345,0.3586428,0.7631615
bottle_s125,0.3570064,-0.23174277,0.24698038,0.22993952,-0.498065,0.020869255,0.15226914,-0.41449857,0.33147767,0.7632481,0.5585033,0.09803169,0.17249095,0.19955963,0.20984755,-0.055695318,0.05181579,0.08402931,0.25891134,0.30739608,-0.09436257,-0.08012203,0.255383,0.70616025,0.5481403,0.18970966,0.57207423,0.31177384,0.24642435,0.8558788,0.6688329,0.49491537,0.015043634,0.651107,0.4115425,0.12705591,-0.040168982,-0.008501675,0.71505237,0.74819076,0.31734157,-0.13317119,-0.08052546,0.9502347,0.47016895,-0.03673038,0.22110611,0.22229132,-0.045361347,0.25712115,0.6071537,0.28953993,0.06738173,0.2421763,-0.07637207,0.5314593,-0.10966383,-0.015905125,0.31127915,0.23559156,0.3574198,0.08484048,0.379661,0.56767154,0.36804458,0.6660891,0.4033139,0.8050121,-0.13896358,0.867928,-0.14559063,0.14465338,0.76541805,-0.05120937,0.031918667,0.8293316,0.25000402,0.0021416806,0.2562626,0.073945,0.13955736,0.11966427,0.45470867,0.21887484,0.4471009,0.5022293,-0.09575872,0.20812969,0.1795179,0.3755033,0.35761538,0.5023927,0.34914404,0.41757452,0.36030784,0.3864898,0.100177616,0.09112996,0.18167925,-0.13167848,0.1940767,0.11573122,0.31116727,0.18461145,0.44830114,0.3703362,0.36214298,-0.099619,0.54646075,-0.007697284,0.05672785,0.0058124578,0.16029643,0.50216895,0.31888688,0.10224413,0.51065075,-0.2995045,0.50059193,-0.0032997094,-0.04311958,0.29215738,0.38277006,-0.043917403,0.78887594,0.46244413,0.0657917,0.6237846
bottle_s126,0.32332602,-0.10320919,0.6272537,0.46573746,-0.32650736,0.2044741,-0.0059742145,-0.38130757,0.38182098,0.5959948,0.9700519,0.025707068,0.533345,0.55307484,-0.102475815,0.05422558,0.3636732,-0.027074128,0.49059853,0.08275978,-0.10524662,0.07309883,0.11078484,0.6374851,0.8371788,0.36425072,0.6355599,0.1928247,0.2354132,0.9173441,0.3436411,0.7410186,-0.20286773,0.78490484,0.16915405,0.21559471,-0.18618654,-0.3567053,0.92550814,0.70979244,0.11907402,-0.23893009,0.13569666,0.47101563,0.63499135,0.12573162,0.6974914,-0.039611105,0.15179044,0.098527044,0.7891705,0.454245,0.25818968,0.5728877,0.24474767,0.62323135,-0.01402672,-0.1684002,-0.17615469,-0.22057438,0.56656986,0.0013494398,0.5228813,0.45112708,0.12755993,0.59176767,0.47785982,0.93802005,-0.13907245,0.77737516,0.23424962,0.00816799,0.929462,-0.08289107,-0.040816735,1.025552,0.19598392,0.13685599,0.23104168,-0.03302699,0.39928886,0.5051746,1.0021604,0.1933134,0.5491191,0.3027242,0.13299698,-0.21953824,0.3208474,0.811056,0.7013069,0.7243802,0.21764024,0.6169013,0.5322685,0.18081707,-0.20314647,0.16370216,0.6841084,0.15632623,0.3528198,0.3584494,0.730586,0.37542826,0.620226,0.022409158,-0.12158215,-0.057114996,0.27542222,0.381059,0.28395253,0.049559817,-0.12826467,0.7461464,0.84880394,0.0466334,0.7029174,-0.37972412,0.36448526,0.051629353,0.34709412,0.5273633,0.45008874,0.11979559,0.6383527,0.2887637,0.1160696,0.4427913
bottle_s127,-0.24215744,0.46198633,0.9021014,1.3612026,-0.45632756,0.8078378,0.08354233,0.19192295,-0.40348253,0.98714256,1.180843,0.28068262,0.44659862,0.8079399,0.22180401,0.10936381,0.17352436,0.3586824,1.5094783,0.3295871,0.61543864,0.23567496,0.1680187,1.4772923,1.4329386,0.13034591,1.3236631,1.215965,-0.37930998,1.5971593,0.91116947,1.3632269,0.3680879,1.3448148,0.48643136,0.6800009,-0.3576729,-0.034211453,1.2142522,1.2732494,-0.26142788,-0.16922648,-0.1659315,0.5651889,0.04588389,0.37053448,0.89950275,0.00402443,0.26162735,0.1751533,1.8070545,1.1880497,-0.017079398,0.7589094,0.5480087,0.18669072,0.5264512,0.75001943,0.35878837,0.3463038,0.5106725,0.17209259,1.115689,0.026412645,-0.08306336,1.5680372,1.1763256,1.7060554,-0.0605834,1.7579995,0.790882,0.32962674,0.60177875,0.021211734,0.6654442,0.51855403,0.56108737,-0.03131089,-0.13449469,0.587102,0.77507305,0.64731365,0.89996016,0.111072406,1.102275,-0.59752333,0.49681067,-0.0060048574,0.7005212,-0.03271678,1.011715,0.9026932,0.27117607,-0.27778086,0.44478408,-0.42530644,0.73694783,-0.4592495,0.58523023,0.11451496,0.15384626,0.13343869,0.71493775,1.2855252,0.59285116,0.5847132,0.11213483,-0.047561757,0.38515714,-0.07871564,0.14258793,0.6715772,-0.19602261,1.1424067,0.35475767,0.08684104,0.7972544,0.23103656,-0.26063293,0.00091160834,0.49733818,0.4441536,1.0716163,-0.42694634,-0.23322453,0.34968826,0.8300424,1.6236079
bottle_s128,-0.06732539,0.16240105,1.0030911,0.3514284,-0.4054377,0.8286967,0.09118469,-0.42704517,0.017542092,0.9619682,1.0034263,0.39098644,0.56462914,0.5500804,0.1936941,0.49178365,-0.044721913,0.12252995,0.909779,0.13421853,-0.12987556,-0.109327264,0.40998214,1.0921838,0.931453,0.32494092,0.78693503,0.62550956,0.15463772,1.6697011,1.7082324,0.93043965,0.32331195,1.0090535,0.4485349,0.25360227,-0.04010066,0.09696028,0.5765974,0.87784845,0.55126715,-0.06313981,-0.025691748,0.9215108,0.5959253,0.044696968,0.24907467,0.19974531,0.5717211,0.3394804,1.6061924,1.0836433,0.2292792,-0.024219442,0.5382757,0.73619795,0.36682233,0.18161017,0.2899543,0.08227042,0.71150225,0.2835418,0.94941205,0.44648206,0.44923753,1.3005648,0.6796686,1.3308263,-0.17610301,1.4252967,0.08108803,0.036736935,0.7876952,-0.104248144,0.1793497,0.592834,0.6281595,0.11384109,-0.1305683,0.268508,0.30946353,0.36769325,0.038407277,0.104643665,0.42011544,0.07465884,-0.17982228,0.14449558,0.8734759,0.5463535,0.69979185,0.24248081,0.2811921,-0.23636037,0.1376326,-0.10964682,-0.04382373,-0.119185805,0.114600316,0.021165077,0.5257854,0.33872557,0.43620348,0.85055417,0.34880057,0.75133854,0.5352794,-0.4802553,0.2521844,-0.0683281,-0.2142652,-0.014980543,0.48458692,0.89661723,0.5044143,-0.38598424,0.33920306,0.34426326,0.07417692,-0.12428323,0.12260039,0.67611945,0.7006841,0.26411805,0.963748,0.13188684,0.17866088,1.0079572
bottle_s129,0.2687602,0.3199368,0.4510593,0.4237692,-0.6704248,0.726619,0.35931256,0.14820758,-0.15475278,1.0013974,0.49117053,0.34638134,0.32392302,-0.2037125,0.5499854,-0.10861149,0.18813613,0.44551885,0.7725968,0.09913707,-0.07542975,0.5308749,0.019747868,0.8202838,1.0148548,0.3084848,1.0215734,0.28550166,-0.022922963,1.2041622,1.1783602,0.8192171,0.49104106,0.7913757,0.28946504,0.5547424,0.22478947,0.3671324,0.8207608,0.91526604,-0.09411973,0.21659344,-0.26073337,1.1090555,0.79309714,0.34918067,0.25192875,-0.14616722,-0.40043387,0.9068682,1.4327532,0.7210742,-0.13014494,0.5880849,0.7034465,1.0738461,0.563973,0.46395853,0.4225654,0.41614336,0.21154964,0.08659907,0.6327518,0.6005645,0.42214823,1.158604,0.50566363,0.8313345,-0.007172933,1.300672,-0.007458493,0.06692249,0.30991313,0.6792084,0.039061844,0.7473421,0.7154537,0.5732341,0.054298878,0.534982,0.44526637,-0.19516517,0.465671,0.5190038,0.32725412,0.18235537,-0.10996827,0.1157616,0.3364084,0.25931743,0.44978365,0.29046375,0.35284984,0.27140597,0.281688,-0.06162872,0.1604192,-0.22200176,0.008613057,0.27359718,-0.2408122,-0.22835334,0.7515697,0.5734476,0.51575303,0.56209993,0.2665251,-0.16210659,0.5931659,0.18310496,0.20981492,0.5286092,-0.18542652,0.54950184,0.5377202,0.3556599,0.38943532,0.31348333,0.8243025,-0.16012722,0.12803902,0.01126254,0.69867307,-0.171134,0.30828384,0.6648899,0.3472369,0.60147446
bottle_s130,0.1464067,-0.026755042,0.7606752,0.29600173,-0.4805378,0.40896213,0.15927322,-0.3055155,0.17048313,0.94251835,0.73202914,0.17923291,0.36912417,0.21462557,0.49870396,0.36249956,0.20725176,0.060396336,0.6455638,0.038792968,-0.1479239,-0.041750334,0.7049814,0.8341592,0.87002635,0.2842719,0.81443006,0.23265554,0.37912738,1.3580753,1.4339296,0.69004023,0.11312151,0.4067703,0.3503833,0.14340842,-0.062995285,-0.1045976,0.7296286,0.84643793,0.620671,0.15972987,-0.12880655,0.9956207,0.9508448,0.1028859,-0.08616029,0.069327,0.4672219,0.4900078,0.9533813,0.5933765,0.2549983,0.034518976,0.60607684,0.88595986,0.47869137,-0.009426311,0.13694756,0.336555,0.48705366,0.33429387,0.7637935,0.5555507,0.52828074,1.0370293,0.48464715,1.095066,-0.051790122,1.2719797,0.2764121,-0.121807024,1.0197552,0.04194971,0.21398135,0.99228746,0.7052123,0.26017675,-0.11702542,0.111122504,0.29797444,0.075458534,0.061285805,0.28914976,0.3251343,0.26263,-0.4394164,0.031053822,0.4530224,0.2661868,0.7486348,0.07997502,0.4669668,-0.28697425,0.12937272,0.13346732,-0.01724733,0.0125936605,0.017143536,0.24152555,0.46025792,0.12874481,0.64564884,0.31349596,0.14396277,0.804526,0.68910235,-0.13400775,0.6130596,0.13764739,0.146098,0.33496553,0.44677883,0.7531424,0.14902453,-0.18467775,0.2558055,0.3631426,0.43235844,0.21998209,-0.04171425,0.5544159,0.4302008,-0.16327928,0.87747437,0.43611374,0.14112602,0.37652716
bottle_s131,0.2490746,0.30032164,0.75059944,0.15931989,-0.5404772,0.09246303,0.16304934,-0.003424678,0.9086675,1.8729554,0.48501277,0.4953558,-0.23081116,-0.06159991,0.46205866,-0.35075787,-0.08723374,0.43029895,0.43862814,0.5327858,-0.40954328,0.05150693,0.35290885,0.83156115,0.8423936,0.1656565,1.1853381,0.2565343,0.0540418,1.0948663,1.7071853,0.5425434,0.47211444,0.7415907,0.86693764,0.3603772,-0.04629131,-0.2133905,0.35296813,0.4929137,0.44106948,0.3649732,-0.3783998,1.4390917,0.46548772,0.09125865,0.081681445,0.56300324,0.11767349,0.41091755,0.9317781,-0.049779397,-0.33555812,0.42996845,-0.20636211,0.69870615,0.22401199,0.1709055,1.0727676,0.43778563,0.036993474,-0.09102507,0.3838623,0.83185273,0.44772753,0.17160225,-0.14626242,0.9342192,-0.2995657,0.79739636,-0.40390486,0.38197783,1.3258492,-0.35268265,-0.033509057,1.4707973,0.49519408,-2.753362e-05,0.860212,-0.19567285,-0.1419879,0.22021033,-0.6556605,0.2075574,0.34986115,0.9872357,0.0090885535,0.4503518,0.591405,0.58692336,0.05475904,0.21652746,0.5947078,0.15849328,0.18880127,0.53308,-0.16954488,-0.5919039,-0.33988363,-0.0747141,0.10916967,0.31540495,0.2702474,0.14820485,0.33530027,0.50563717,0.35835546,0.092025556,0.40502435,0.6863455,0.22660893,-0.57431126,0.49332598,1.0095173,0.2039855,-0.21341193,0.7943818,0.49250662,0.8516092,0.25526994,-0.1588644,0.43383336,0.24045669,-0.1645863,1.1575023,0.65018183,-0.07607433,0.3922634
